<?xml version="1.0"?>
<opencv_storage>
<stage0>
  <maxWeakCount>8</maxWeakCount>
  <stageThreshold>-1.3002269268035889e+00</stageThreshold>
  <weakClassifiers>
    <_>
      <internalNodes>
        0 -1 13891 3.5525944083929062e-02</internalNodes>
      <leafValues>
        -8.2330095767974854e-01 5.4814815521240234e-01</leafValues></_>
    <_>
      <internalNodes>
        0 -1 97357 -3.9135878905653954e-03</internalNodes>
      <leafValues>
        2.5528281927108765e-01 -7.0452630519866943e-01</leafValues></_>
    <_>
      <internalNodes>
        0 -1 134079 -3.1334728002548218e-02</internalNodes>
      <leafValues>
        7.2364813089370728e-01 -3.8243043422698975e-01</leafValues></_>
    <_>
      <internalNodes>
        0 -1 57598 2.6406182441860437e-03</internalNodes>
      <leafValues>
        -4.2008844017982483e-01 5.3148138523101807e-01</leafValues></_>
    <_>
      <internalNodes>
        0 -1 16637 7.8738316893577576e-02</internalNodes>
      <leafValues>
        -2.6235687732696533e-01 7.7826482057571411e-01</leafValues></_>
    <_>
      <internalNodes>
        0 -1 127719 -1.0238102078437805e-01</internalNodes>
      <leafValues>
        -8.7553906440734863e-01 3.0530726909637451e-01</leafValues></_>
    <_>
      <internalNodes>
        0 -1 340 -2.7575280517339706e-02</internalNodes>
      <leafValues>
        7.1090799570083618e-01 -3.4372916817665100e-01</leafValues></_>
    <_>
      <internalNodes>
        0 -1 88180 -1.6686087474226952e-02</internalNodes>
      <leafValues>
        3.7932822108268738e-01 -6.0617583990097046e-01</leafValues></_></weakClassifiers></stage0>
</opencv_storage>
