<?xml version="1.0"?>
<opencv_storage>
<cascade>
  <stageType>BOOST</stageType>
  <featureType>HAAR</featureType>
  <height>24</height>
  <width>24</width>
  <stageParams>
    <boostType>GAB</boostType>
    <minHitRate>9.9900001287460327e-01</minHitRate>
    <maxFalseAlarm>4.0000000596046448e-01</maxFalseAlarm>
    <weightTrimRate>9.4999999999999996e-01</weightTrimRate>
    <maxDepth>1</maxDepth>
    <maxWeakCount>100</maxWeakCount></stageParams>
  <featureParams>
    <maxCatCount>0</maxCatCount>
    <featSize>1</featSize>
    <mode>BASIC</mode></featureParams>
  <stageNum>12</stageNum>
  <stages>
    <!-- stage 0 -->
    <_>
      <maxWeakCount>7</maxWeakCount>
      <stageThreshold>-1.6694771051406860e+00</stageThreshold>
      <weakClassifiers>
        <_>
          <internalNodes>
            0 -1 27 3.0189283192157745e-02</internalNodes>
          <leafValues>
            -8.5604608058929443e-01 5.8227849006652832e-01</leafValues></_>
        <_>
          <internalNodes>
            0 -1 66 -8.7870210409164429e-03</internalNodes>
          <leafValues>
            1.7155119776725769e-01 -8.0497026443481445e-01</leafValues></_>
        <_>
          <internalNodes>
            0 -1 117 -3.7340544164180756e-02</internalNodes>
          <leafValues>
            7.9051554203033447e-01 -3.7857919931411743e-01</leafValues></_>
        <_>
          <internalNodes>
            0 -1 51 1.6090716235339642e-03</internalNodes>
          <leafValues>
            -4.9971488118171692e-01 4.8684924840927124e-01</leafValues></_>
        <_>
          <internalNodes>
            0 -1 1 2.8632711619138718e-02</internalNodes>
          <leafValues>
            -2.9659590125083923e-01 7.9236280918121338e-01</leafValues></_>
        <_>
          <internalNodes>
            0 -1 122 -4.3239706428721547e-04</internalNodes>
          <leafValues>
            4.1371729969978333e-01 -5.0435912609100342e-01</leafValues></_>
        <_>
          <internalNodes>
            0 -1 10 -2.1926023066043854e-02</internalNodes>
          <leafValues>
            8.9098167419433594e-01 -2.2380952537059784e-01</leafValues></_></weakClassifiers></_>
    <!-- stage 1 -->
    <_>
      <maxWeakCount>6</maxWeakCount>
      <stageThreshold>-1.3679562807083130e+00</stageThreshold>
      <weakClassifiers>
        <_>
          <internalNodes>
            0 -1 95 -3.2808095216751099e-02</internalNodes>
          <leafValues>
            1.4000000059604645e-01 -8.2800000905990601e-01</leafValues></_>
        <_>
          <internalNodes>
            0 -1 100 -1.0033895075321198e-01</internalNodes>
          <leafValues>
            -9.1705995798110962e-01 1.7447750270366669e-01</leafValues></_>
        <_>
          <internalNodes>
            0 -1 63 1.7530280165374279e-03</internalNodes>
          <leafValues>
            -5.7158434391021729e-01 3.8751992583274841e-01</leafValues></_>
        <_>
          <internalNodes>
            0 -1 39 1.8977062776684761e-02</internalNodes>
          <leafValues>
            -4.7624015808105469e-01 6.0055595636367798e-01</leafValues></_>
        <_>
          <internalNodes>
            0 -1 113 -4.2195841670036316e-02</internalNodes>
          <leafValues>
            7.1153503656387329e-01 -2.0616264641284943e-01</leafValues></_>
        <_>
          <internalNodes>
            0 -1 115 3.6063849925994873e-02</internalNodes>
          <leafValues>
            -2.4571105837821960e-01 7.8211390972137451e-01</leafValues></_></weakClassifiers></_>
    <!-- stage 2 -->
    <_>
      <maxWeakCount>10</maxWeakCount>
      <stageThreshold>-1.8383692502975464e+00</stageThreshold>
      <weakClassifiers>
        <_>
          <internalNodes>
            0 -1 108 -1.2529714033007622e-02</internalNodes>
          <leafValues>
            -4.3137256056070328e-02 -8.3492064476013184e-01</leafValues></_>
        <_>
          <internalNodes>
            0 -1 75 -8.0920606851577759e-03</internalNodes>
          <leafValues>
            3.7864604592323303e-01 -5.4382336139678955e-01</leafValues></_>
        <_>
          <internalNodes>
            0 -1 125 -8.9815375395119190e-04</internalNodes>
          <leafValues>
            4.9885177612304688e-01 -3.9853957295417786e-01</leafValues></_>
        <_>
          <internalNodes>
            0 -1 59 -4.0544509887695312e-01</internalNodes>
          <leafValues>
            -7.5597941875457764e-01 2.2583183646202087e-01</leafValues></_>
        <_>
          <internalNodes>
            0 -1 11 -4.1792783886194229e-03</internalNodes>
          <leafValues>
            4.4247514009475708e-01 -3.9551407098770142e-01</leafValues></_>
        <_>
          <internalNodes>
            0 -1 42 -2.3281225934624672e-02</internalNodes>
          <leafValues>
            -6.9267904758453369e-01 2.6036620140075684e-01</leafValues></_>
        <_>
          <internalNodes>
            0 -1 129 -8.1591890193521976e-04</internalNodes>
          <leafValues>
            5.9662050008773804e-01 -2.9208827018737793e-01</leafValues></_>
        <_>
          <internalNodes>
            0 -1 137 1.1286577209830284e-03</internalNodes>
          <leafValues>
            -2.0781922340393066e-01 7.3317939043045044e-01</leafValues></_>
        <_>
          <internalNodes>
            0 -1 69 1.7417222261428833e-03</internalNodes>
          <leafValues>
            -2.1398055553436279e-01 6.3310647010803223e-01</leafValues></_>
        <_>
          <internalNodes>
            0 -1 45 5.7161729782819748e-03</internalNodes>
          <leafValues>
            -2.2966493666172028e-01 6.4421814680099487e-01</leafValues></_></weakClassifiers></_>
    <!-- stage 3 -->
    <_>
      <maxWeakCount>10</maxWeakCount>
      <stageThreshold>-1.7502778768539429e+00</stageThreshold>
      <weakClassifiers>
        <_>
          <internalNodes>
            0 -1 27 4.4779706746339798e-02</internalNodes>
          <leafValues>
            -7.9166668653488159e-01 2.5000000000000000e-01</leafValues></_>
        <_>
          <internalNodes>
            0 -1 106 -7.0838360115885735e-03</internalNodes>
          <leafValues>
            8.1199459731578827e-02 -8.0549198389053345e-01</leafValues></_>
        <_>
          <internalNodes>
            0 -1 2 -2.7062956243753433e-02</internalNodes>
          <leafValues>
            5.2488696575164795e-01 -3.4049469232559204e-01</leafValues></_>
        <_>
          <internalNodes>
            0 -1 134 1.3517763465642929e-02</internalNodes>
          <leafValues>
            -3.0621346831321716e-01 5.3686118125915527e-01</leafValues></_>
        <_>
          <internalNodes>
            0 -1 64 6.5019284375011921e-04</internalNodes>
          <leafValues>
            2.2017325460910797e-01 -7.4037271738052368e-01</leafValues></_>
        <_>
          <internalNodes>
            0 -1 110 3.4757382236421108e-03</internalNodes>
          <leafValues>
            -2.9781574010848999e-01 4.7578528523445129e-01</leafValues></_>
        <_>
          <internalNodes>
            0 -1 40 2.5432797148823738e-02</internalNodes>
          <leafValues>
            -2.3079074919223785e-01 6.9581681489944458e-01</leafValues></_>
        <_>
          <internalNodes>
            0 -1 22 -1.9384250044822693e-02</internalNodes>
          <leafValues>
            6.6697001457214355e-01 -2.1107158064842224e-01</leafValues></_>
        <_>
          <internalNodes>
            0 -1 72 -7.3269255459308624e-02</internalNodes>
          <leafValues>
            6.4169812202453613e-01 -2.1145185828208923e-01</leafValues></_>
        <_>
          <internalNodes>
            0 -1 52 3.6098817363381386e-03</internalNodes>
          <leafValues>
            -3.4773942828178406e-01 4.3301847577095032e-01</leafValues></_></weakClassifiers></_>
    <!-- stage 4 -->
    <_>
      <maxWeakCount>11</maxWeakCount>
      <stageThreshold>-1.6613595485687256e+00</stageThreshold>
      <weakClassifiers>
        <_>
          <internalNodes>
            0 -1 82 1.3077324256300926e-02</internalNodes>
          <leafValues>
            -8.6885243654251099e-01 -2.7272728085517883e-01</leafValues></_>
        <_>
          <internalNodes>
            0 -1 92 -1.3684995938092470e-03</internalNodes>
          <leafValues>
            2.6214802265167236e-01 -4.7554555535316467e-01</leafValues></_>
        <_>
          <internalNodes>
            0 -1 118 -1.7584556713700294e-02</internalNodes>
          <leafValues>
            -3.9154291152954102e-01 3.5291811823844910e-01</leafValues></_>
        <_>
          <internalNodes>
            0 -1 131 -2.3053776472806931e-02</internalNodes>
          <leafValues>
            5.5872893333435059e-01 -2.4133811891078949e-01</leafValues></_>
        <_>
          <internalNodes>
            0 -1 119 9.3840762972831726e-02</internalNodes>
          <leafValues>
            -1.7596815526485443e-01 6.4889430999755859e-01</leafValues></_>
        <_>
          <internalNodes>
            0 -1 36 3.8378708995878696e-03</internalNodes>
          <leafValues>
            -2.6495635509490967e-01 3.8354137539863586e-01</leafValues></_>
        <_>
          <internalNodes>
            0 -1 88 2.4955265689641237e-03</internalNodes>
          <leafValues>
            -3.5665810108184814e-01 2.9545962810516357e-01</leafValues></_>
        <_>
          <internalNodes>
            0 -1 24 4.7384388744831085e-04</internalNodes>
          <leafValues>
            -2.9541528224945068e-01 3.2862660288810730e-01</leafValues></_>
        <_>
          <internalNodes>
            0 -1 105 -5.5713076144456863e-03</internalNodes>
          <leafValues>
            4.3036267161369324e-01 -2.2619205713272095e-01</leafValues></_>
        <_>
          <internalNodes>
            0 -1 136 -3.8355015218257904e-02</internalNodes>
          <leafValues>
            7.2639662027359009e-01 -1.5605820715427399e-01</leafValues></_>
        <_>
          <internalNodes>
            0 -1 123 1.6537201590836048e-03</internalNodes>
          <leafValues>
            -2.2712251543998718e-01 4.5378196239471436e-01</leafValues></_></weakClassifiers></_>
    <!-- stage 5 -->
    <_>
      <maxWeakCount>14</maxWeakCount>
      <stageThreshold>-1.3343732357025146e+00</stageThreshold>
      <weakClassifiers>
        <_>
          <internalNodes>
            0 -1 38 2.0841650664806366e-02</internalNodes>
          <leafValues>
            -7.7528089284896851e-01 -1.8552036583423615e-01</leafValues></_>
        <_>
          <internalNodes>
            0 -1 84 -9.7897797822952271e-03</internalNodes>
          <leafValues>
            1.5590992569923401e-01 -4.9034291505813599e-01</leafValues></_>
        <_>
          <internalNodes>
            0 -1 127 -1.2443186715245247e-03</internalNodes>
          <leafValues>
            2.4090868234634399e-01 -3.8996210694313049e-01</leafValues></_>
        <_>
          <internalNodes>
            0 -1 62 -3.0586093664169312e-02</internalNodes>
          <leafValues>
            -6.3638812303543091e-01 1.4750972390174866e-01</leafValues></_>
        <_>
          <internalNodes>
            0 -1 101 -2.5008390657603741e-03</internalNodes>
          <leafValues>
            1.7618089914321899e-01 -7.0923870801925659e-01</leafValues></_>
        <_>
          <internalNodes>
            0 -1 73 1.8617894500494003e-02</internalNodes>
          <leafValues>
            1.0481711477041245e-01 -8.0751520395278931e-01</leafValues></_>
        <_>
          <internalNodes>
            0 -1 8 -1.7405135557055473e-02</internalNodes>
          <leafValues>
            4.6560111641883850e-01 -2.3900599777698517e-01</leafValues></_>
        <_>
          <internalNodes>
            0 -1 7 2.7713514864444733e-03</internalNodes>
          <leafValues>
            -2.6444634795188904e-01 4.1138249635696411e-01</leafValues></_>
        <_>
          <internalNodes>
            0 -1 32 7.0592458359897137e-04</internalNodes>
          <leafValues>
            -2.8362661600112915e-01 3.1603470444679260e-01</leafValues></_>
        <_>
          <internalNodes>
            0 -1 29 -1.7938395030796528e-03</internalNodes>
          <leafValues>
            -7.3796898126602173e-01 1.2085568159818649e-01</leafValues></_>
        <_>
          <internalNodes>
            0 -1 87 9.6900776028633118e-02</internalNodes>
          <leafValues>
            7.7708281576633453e-02 -9.4185769557952881e-01</leafValues></_>
        <_>
          <internalNodes>
            0 -1 135 -6.8083195947110653e-04</internalNodes>
          <leafValues>
            3.6228603124618530e-01 -2.5935938954353333e-01</leafValues></_>
        <_>
          <internalNodes>
            0 -1 4 -4.6859674155712128e-02</internalNodes>
          <leafValues>
            5.5624902248382568e-01 -1.5372742712497711e-01</leafValues></_>
        <_>
          <internalNodes>
            0 -1 3 2.5391068309545517e-02</internalNodes>
          <leafValues>
            -1.6586622595787048e-01 6.1809670925140381e-01</leafValues></_></weakClassifiers></_>
    <!-- stage 6 -->
    <_>
      <maxWeakCount>13</maxWeakCount>
      <stageThreshold>-1.3643354177474976e+00</stageThreshold>
      <weakClassifiers>
        <_>
          <internalNodes>
            0 -1 70 -6.7530497908592224e-02</internalNodes>
          <leafValues>
            -1.8048781156539917e-01 -7.6683419942855835e-01</leafValues></_>
        <_>
          <internalNodes>
            0 -1 86 -5.5591608397662640e-03</internalNodes>
          <leafValues>
            2.0064201951026917e-01 -4.2664444446563721e-01</leafValues></_>
        <_>
          <internalNodes>
            0 -1 132 -3.7157207727432251e-02</internalNodes>
          <leafValues>
            -9.0354925394058228e-01 1.2406345456838608e-01</leafValues></_>
        <_>
          <internalNodes>
            0 -1 19 1.2423659209161997e-03</internalNodes>
          <leafValues>
            -4.5837533473968506e-01 2.0735985040664673e-01</leafValues></_>
        <_>
          <internalNodes>
            0 -1 93 -2.7082683518528938e-03</internalNodes>
          <leafValues>
            -9.1637921333312988e-01 5.8891307562589645e-02</leafValues></_>
        <_>
          <internalNodes>
            0 -1 107 2.9322647606022656e-04</internalNodes>
          <leafValues>
            -2.2041061520576477e-01 3.5928410291671753e-01</leafValues></_>
        <_>
          <internalNodes>
            0 -1 33 -1.3148933649063110e-02</internalNodes>
          <leafValues>
            5.8362185955047607e-01 -1.4730337262153625e-01</leafValues></_>
        <_>
          <internalNodes>
            0 -1 67 2.2562580183148384e-02</internalNodes>
          <leafValues>
            1.0579109191894531e-01 -7.7665692567825317e-01</leafValues></_>
        <_>
          <internalNodes>
            0 -1 9 4.5209946110844612e-03</internalNodes>
          <leafValues>
            8.1122256815433502e-02 -8.1475919485092163e-01</leafValues></_>
        <_>
          <internalNodes>
            0 -1 14 3.1429968774318695e-02</internalNodes>
          <leafValues>
            -2.7396863698959351e-01 2.6383003592491150e-01</leafValues></_>
        <_>
          <internalNodes>
            0 -1 114 -8.2275141030550003e-03</internalNodes>
          <leafValues>
            4.1747513413429260e-01 -2.1442890167236328e-01</leafValues></_>
        <_>
          <internalNodes>
            0 -1 128 1.4354417100548744e-02</internalNodes>
          <leafValues>
            -1.3422065973281860e-01 4.7637686133384705e-01</leafValues></_>
        <_>
          <internalNodes>
            0 -1 104 -1.1344499140977859e-01</internalNodes>
          <leafValues>
            3.7078925967216492e-01 -2.0951071381568909e-01</leafValues></_></weakClassifiers></_>
    <!-- stage 7 -->
    <_>
      <maxWeakCount>13</maxWeakCount>
      <stageThreshold>-1.3712617158889771e+00</stageThreshold>
      <weakClassifiers>
        <_>
          <internalNodes>
            0 -1 78 -5.2974604070186615e-02</internalNodes>
          <leafValues>
            -7.4812030792236328e-01 -2.9411764815449715e-02</leafValues></_>
        <_>
          <internalNodes>
            0 -1 35 -1.0723638348281384e-02</internalNodes>
          <leafValues>
            -3.1920135021209717e-01 4.2218372225761414e-01</leafValues></_>
        <_>
          <internalNodes>
            0 -1 120 -4.9937069416046143e-03</internalNodes>
          <leafValues>
            -1. 9.1638967394828796e-02</leafValues></_>
        <_>
          <internalNodes>
            0 -1 81 -1.3570738956332207e-03</internalNodes>
          <leafValues>
            -6.6185551881790161e-01 1.2976768612861633e-01</leafValues></_>
        <_>
          <internalNodes>
            0 -1 5 -6.8353461101651192e-03</internalNodes>
          <leafValues>
            -7.9688435792922974e-01 8.6985118687152863e-02</leafValues></_>
        <_>
          <internalNodes>
            0 -1 142 -2.3136928211897612e-04</internalNodes>
          <leafValues>
            -4.6440920233726501e-01 1.5899404883384705e-01</leafValues></_>
        <_>
          <internalNodes>
            0 -1 80 3.4509297460317612e-02</internalNodes>
          <leafValues>
            -2.8419920802116394e-01 2.9872626066207886e-01</leafValues></_>
        <_>
          <internalNodes>
            0 -1 145 6.7755824420601130e-04</internalNodes>
          <leafValues>
            1.5925765037536621e-01 -5.3316658735275269e-01</leafValues></_>
        <_>
          <internalNodes>
            0 -1 68 -5.5435616523027420e-03</internalNodes>
          <leafValues>
            1.9001132249832153e-01 -4.5403370261192322e-01</leafValues></_>
        <_>
          <internalNodes>
            0 -1 41 -2.4034786969423294e-02</internalNodes>
          <leafValues>
            -6.6728764772415161e-01 1.1828985065221786e-01</leafValues></_>
        <_>
          <internalNodes>
            0 -1 55 -7.5997717678546906e-02</internalNodes>
          <leafValues>
            -1. 6.1787385493516922e-02</leafValues></_>
        <_>
          <internalNodes>
            0 -1 77 -9.6338465809822083e-03</internalNodes>
          <leafValues>
            2.9257792234420776e-01 -2.7872818708419800e-01</leafValues></_>
        <_>
          <internalNodes>
            0 -1 96 -1.5968650113791227e-03</internalNodes>
          <leafValues>
            -6.8750655651092529e-01 1.1774138361215591e-01</leafValues></_></weakClassifiers></_>
    <!-- stage 8 -->
    <_>
      <maxWeakCount>14</maxWeakCount>
      <stageThreshold>-1.4157483577728271e+00</stageThreshold>
      <weakClassifiers>
        <_>
          <internalNodes>
            0 -1 71 8.1207431852817535e-02</internalNodes>
          <leafValues>
            -7.5609755516052246e-01 -1.4285714924335480e-01</leafValues></_>
        <_>
          <internalNodes>
            0 -1 83 1.3248426839709282e-02</internalNodes>
          <leafValues>
            -3.9347898960113525e-01 1.7534257471561432e-01</leafValues></_>
        <_>
          <internalNodes>
            0 -1 56 4.4220723211765289e-02</internalNodes>
          <leafValues>
            9.1959781944751740e-02 -8.3043247461318970e-01</leafValues></_>
        <_>
          <internalNodes>
            0 -1 65 -1.1233112309128046e-03</internalNodes>
          <leafValues>
            2.4019709229469299e-01 -4.6236017346382141e-01</leafValues></_>
        <_>
          <internalNodes>
            0 -1 15 -6.4460337162017822e-03</internalNodes>
          <leafValues>
            3.8254928588867188e-01 -2.1135714650154114e-01</leafValues></_>
        <_>
          <internalNodes>
            0 -1 111 -2.4742155801504850e-04</internalNodes>
          <leafValues>
            -4.6903443336486816e-01 1.6406419873237610e-01</leafValues></_>
        <_>
          <internalNodes>
            0 -1 89 -8.2003502175211906e-03</internalNodes>
          <leafValues>
            4.3929877877235413e-01 -1.6984060406684875e-01</leafValues></_>
        <_>
          <internalNodes>
            0 -1 143 1.2496838462539017e-04</internalNodes>
          <leafValues>
            2.0947776734828949e-01 -4.1121581196784973e-01</leafValues></_>
        <_>
          <internalNodes>
            0 -1 12 -1.7507195007055998e-03</internalNodes>
          <leafValues>
            -4.9520403146743774e-01 1.5144301950931549e-01</leafValues></_>
        <_>
          <internalNodes>
            0 -1 102 2.1329876035451889e-03</internalNodes>
          <leafValues>
            1.0575261712074280e-01 -6.4145481586456299e-01</leafValues></_>
        <_>
          <internalNodes>
            0 -1 102 -2.4840480182319880e-03</internalNodes>
          <leafValues>
            -7.8938299417495728e-01 1.0676922649145126e-01</leafValues></_>
        <_>
          <internalNodes>
            0 -1 34 -1.4025602489709854e-02</internalNodes>
          <leafValues>
            4.7142568230628967e-01 -1.8329706788063049e-01</leafValues></_>
        <_>
          <internalNodes>
            0 -1 47 1.6504324972629547e-02</internalNodes>
          <leafValues>
            1.3912317156791687e-01 -5.5281168222427368e-01</leafValues></_>
        <_>
          <internalNodes>
            0 -1 141 -2.6588316541165113e-04</internalNodes>
          <leafValues>
            -4.1882506012916565e-01 1.4692467451095581e-01</leafValues></_></weakClassifiers></_>
    <!-- stage 9 -->
    <_>
      <maxWeakCount>17</maxWeakCount>
      <stageThreshold>-1.3721504211425781e+00</stageThreshold>
      <weakClassifiers>
        <_>
          <internalNodes>
            0 -1 23 -3.0771209858357906e-03</internalNodes>
          <leafValues>
            -7.1073645353317261e-01 1.3698630034923553e-02</leafValues></_>
        <_>
          <internalNodes>
            0 -1 6 -3.2591525465250015e-02</internalNodes>
          <leafValues>
            3.2289984822273254e-01 -3.1558567285537720e-01</leafValues></_>
        <_>
          <internalNodes>
            0 -1 13 3.2544974237680435e-02</internalNodes>
          <leafValues>
            -1.9583040475845337e-01 4.0110823512077332e-01</leafValues></_>
        <_>
          <internalNodes>
            0 -1 90 3.6123779136687517e-03</internalNodes>
          <leafValues>
            -2.4240258336067200e-01 3.2138925790786743e-01</leafValues></_>
        <_>
          <internalNodes>
            0 -1 28 9.2754012439399958e-04</internalNodes>
          <leafValues>
            8.7376587092876434e-02 -7.2669661045074463e-01</leafValues></_>
        <_>
          <internalNodes>
            0 -1 140 3.4173869062215090e-03</internalNodes>
          <leafValues>
            8.6923211812973022e-02 -8.9760792255401611e-01</leafValues></_>
        <_>
          <internalNodes>
            0 -1 60 -5.4876012727618217e-03</internalNodes>
          <leafValues>
            3.3371159434318542e-01 -2.1689456701278687e-01</leafValues></_>
        <_>
          <internalNodes>
            0 -1 98 -4.4520539231598377e-03</internalNodes>
          <leafValues>
            3.8657799363136292e-01 -1.9493447244167328e-01</leafValues></_>
        <_>
          <internalNodes>
            0 -1 48 -1.6404241323471069e-02</internalNodes>
          <leafValues>
            -7.9614228010177612e-01 7.9788252711296082e-02</leafValues></_>
        <_>
          <internalNodes>
            0 -1 26 -7.3324902914464474e-03</internalNodes>
          <leafValues>
            4.9497711658477783e-01 -1.2315003573894501e-01</leafValues></_>
        <_>
          <internalNodes>
            0 -1 17 -1.2331264093518257e-02</internalNodes>
          <leafValues>
            -1.1090461164712906e-01 5.5629509687423706e-01</leafValues></_>
        <_>
          <internalNodes>
            0 -1 144 3.0955101829022169e-04</internalNodes>
          <leafValues>
            1.7220577597618103e-01 -3.5315346717834473e-01</leafValues></_>
        <_>
          <internalNodes>
            0 -1 16 7.9288091510534286e-03</internalNodes>
          <leafValues>
            -1.5276572108268738e-01 3.9377701282501221e-01</leafValues></_>
        <_>
          <internalNodes>
            0 -1 103 5.4179579019546509e-02</internalNodes>
          <leafValues>
            -1.5736219286918640e-01 4.3158510327339172e-01</leafValues></_>
        <_>
          <internalNodes>
            0 -1 97 -7.9500898718833923e-03</internalNodes>
          <leafValues>
            2.4267186224460602e-01 -2.5384065508842468e-01</leafValues></_>
        <_>
          <internalNodes>
            0 -1 94 1.6785129904747009e-02</internalNodes>
          <leafValues>
            -1.5670929849147797e-01 5.8665663003921509e-01</leafValues></_>
        <_>
          <internalNodes>
            0 -1 85 -2.6534885168075562e-02</internalNodes>
          <leafValues>
            -9.3135887384414673e-01 8.3314187824726105e-02</leafValues></_></weakClassifiers></_>
    <!-- stage 10 -->
    <_>
      <maxWeakCount>15</maxWeakCount>
      <stageThreshold>-1.2520970106124878e+00</stageThreshold>
      <weakClassifiers>
        <_>
          <internalNodes>
            0 -1 79 -1.0388807952404022e-01</internalNodes>
          <leafValues>
            -2.1290323138237000e-01 -7.3397129774093628e-01</leafValues></_>
        <_>
          <internalNodes>
            0 -1 109 -7.7760976273566484e-04</internalNodes>
          <leafValues>
            -7.9345041513442993e-01 -7.0138059556484222e-02</leafValues></_>
        <_>
          <internalNodes>
            0 -1 18 -7.2511732578277588e-03</internalNodes>
          <leafValues>
            -7.8965997695922852e-01 5.2377726882696152e-02</leafValues></_>
        <_>
          <internalNodes>
            0 -1 116 -3.1090518459677696e-03</internalNodes>
          <leafValues>
            3.1760609149932861e-01 -1.9343766570091248e-01</leafValues></_>
        <_>
          <internalNodes>
            0 -1 21 1.6248449683189392e-02</internalNodes>
          <leafValues>
            1.0383665561676025e-01 -6.9722199440002441e-01</leafValues></_>
        <_>
          <internalNodes>
            0 -1 49 -4.9736094661056995e-03</internalNodes>
          <leafValues>
            2.5660267472267151e-01 -2.4880430102348328e-01</leafValues></_>
        <_>
          <internalNodes>
            0 -1 112 3.3842972479760647e-03</internalNodes>
          <leafValues>
            8.6555249989032745e-02 -8.1787961721420288e-01</leafValues></_>
        <_>
          <internalNodes>
            0 -1 74 -6.8694744259119034e-03</internalNodes>
          <leafValues>
            -7.2306305170059204e-01 6.9126367568969727e-02</leafValues></_>
        <_>
          <internalNodes>
            0 -1 54 -2.6494336780160666e-03</internalNodes>
          <leafValues>
            2.0198021829128265e-01 -2.9303097724914551e-01</leafValues></_>
        <_>
          <internalNodes>
            0 -1 121 1.1477291584014893e-02</internalNodes>
          <leafValues>
            -1.2366371601819992e-01 5.4351150989532471e-01</leafValues></_>
        <_>
          <internalNodes>
            0 -1 99 -3.1321577727794647e-02</internalNodes>
          <leafValues>
            -7.5923436880111694e-01 8.8856220245361328e-02</leafValues></_>
        <_>
          <internalNodes>
            0 -1 53 -5.9439986944198608e-03</internalNodes>
          <leafValues>
            2.4991992115974426e-01 -2.2633554041385651e-01</leafValues></_>
        <_>
          <internalNodes>
            0 -1 57 -1.1317173484712839e-03</internalNodes>
          <leafValues>
            3.2538759708404541e-01 -2.1149146556854248e-01</leafValues></_>
        <_>
          <internalNodes>
            0 -1 91 5.7823205133900046e-04</internalNodes>
          <leafValues>
            -2.0833113789558411e-01 3.3109316229820251e-01</leafValues></_>
        <_>
          <internalNodes>
            0 -1 0 1.0962331725750118e-04</internalNodes>
          <leafValues>
            1.8784347176551819e-01 -3.7553536891937256e-01</leafValues></_></weakClassifiers></_>
    <!-- stage 11 -->
    <_>
      <maxWeakCount>18</maxWeakCount>
      <stageThreshold>-1.3306564092636108e+00</stageThreshold>
      <weakClassifiers>
        <_>
          <internalNodes>
            0 -1 124 -4.5941807329654694e-02</internalNodes>
          <leafValues>
            1.4925372786819935e-02 -7.0697265863418579e-01</leafValues></_>
        <_>
          <internalNodes>
            0 -1 30 -1.9478861242532730e-02</internalNodes>
          <leafValues>
            2.1858508884906769e-01 -2.9097002744674683e-01</leafValues></_>
        <_>
          <internalNodes>
            0 -1 20 2.9632612131536007e-03</internalNodes>
          <leafValues>
            9.4215095043182373e-02 -6.1110270023345947e-01</leafValues></_>
        <_>
          <internalNodes>
            0 -1 44 3.0642012134194374e-03</internalNodes>
          <leafValues>
            -2.3076662421226501e-01 3.0920049548149109e-01</leafValues></_>
        <_>
          <internalNodes>
            0 -1 76 4.9449890851974487e-02</internalNodes>
          <leafValues>
            -1.2586326897144318e-01 5.7958853244781494e-01</leafValues></_>
        <_>
          <internalNodes>
            0 -1 138 8.8162384927272797e-03</internalNodes>
          <leafValues>
            -1.5759658813476562e-01 3.6954733729362488e-01</leafValues></_>
        <_>
          <internalNodes>
            0 -1 31 2.6619904674589634e-03</internalNodes>
          <leafValues>
            -1.7660623788833618e-01 3.2674804329872131e-01</leafValues></_>
        <_>
          <internalNodes>
            0 -1 130 -4.7134081833064556e-03</internalNodes>
          <leafValues>
            -8.0614942312240601e-01 6.4553350210189819e-02</leafValues></_>
        <_>
          <internalNodes>
            0 -1 37 3.3093855017796159e-04</internalNodes>
          <leafValues>
            1.3385663926601410e-01 -4.1492968797683716e-01</leafValues></_>
        <_>
          <internalNodes>
            0 -1 43 5.1312352297827601e-04</internalNodes>
          <leafValues>
            -1.9622351229190826e-01 3.0220532417297363e-01</leafValues></_>
        <_>
          <internalNodes>
            0 -1 126 8.2316226325929165e-04</internalNodes>
          <leafValues>
            -2.4885879456996918e-01 2.2790612280368805e-01</leafValues></_>
        <_>
          <internalNodes>
            0 -1 46 -3.7060764152556658e-03</internalNodes>
          <leafValues>
            2.9868707060813904e-01 -1.9940875470638275e-01</leafValues></_>
        <_>
          <internalNodes>
            0 -1 58 -7.0579303428530693e-03</internalNodes>
          <leafValues>
            4.6213942766189575e-01 -1.3918158411979675e-01</leafValues></_>
        <_>
          <internalNodes>
            0 -1 133 -3.9501516148447990e-03</internalNodes>
          <leafValues>
            -7.7805066108703613e-01 8.6237259209156036e-02</leafValues></_>
        <_>
          <internalNodes>
            0 -1 139 -1.4325085096061230e-02</internalNodes>
          <leafValues>
            5.3562384843826294e-01 -1.2407266348600388e-01</leafValues></_>
        <_>
          <internalNodes>
            0 -1 50 -6.3443824648857117e-02</internalNodes>
          <leafValues>
            -7.9974418878555298e-01 9.4115875661373138e-02</leafValues></_>
        <_>
          <internalNodes>
            0 -1 61 -1.7199784051626921e-03</internalNodes>
          <leafValues>
            2.5120720267295837e-01 -2.5753802061080933e-01</leafValues></_>
        <_>
          <internalNodes>
            0 -1 25 1.5397040988318622e-04</internalNodes>
          <leafValues>
            1.4903715252876282e-01 -4.3844038248062134e-01</leafValues></_></weakClassifiers></_></stages>
  <features>
    <_>
      <rects>
        <_>
          0 0 2 2 -1.</_>
        <_>
          1 0 1 2 2.</_></rects>
      <tilted>0</tilted></_>
    <_>
      <rects>
        <_>
          0 0 10 8 -1.</_>
        <_>
          0 0 5 4 2.</_>
        <_>
          5 4 5 4 2.</_></rects>
      <tilted>0</tilted></_>
    <_>
      <rects>
        <_>
          0 0 10 5 -1.</_>
        <_>
          5 0 5 5 2.</_></rects>
      <tilted>0</tilted></_>
    <_>
      <rects>
        <_>
          0 3 6 10 -1.</_>
        <_>
          3 3 3 10 2.</_></rects>
      <tilted>0</tilted></_>
    <_>
      <rects>
        <_>
          0 4 8 6 -1.</_>
        <_>
          4 4 4 6 2.</_></rects>
      <tilted>0</tilted></_>
    <_>
      <rects>
        <_>
          0 4 22 2 -1.</_>
        <_>
          0 4 11 1 2.</_>
        <_>
          11 5 11 1 2.</_></rects>
      <tilted>0</tilted></_>
    <_>
      <rects>
        <_>
          0 6 8 5 -1.</_>
        <_>
          4 6 4 5 2.</_></rects>
      <tilted>0</tilted></_>
    <_>
      <rects>
        <_>
          0 11 12 2 -1.</_>
        <_>
          0 11 6 1 2.</_>
        <_>
          6 12 6 1 2.</_></rects>
      <tilted>0</tilted></_>
    <_>
      <rects>
        <_>
          0 15 6 6 -1.</_>
        <_>
          3 15 3 6 2.</_></rects>
      <tilted>0</tilted></_>
    <_>
      <rects>
        <_>
          1 1 7 2 -1.</_>
        <_>
          1 2 7 1 2.</_></rects>
      <tilted>0</tilted></_>
    <_>
      <rects>
        <_>
          1 4 8 3 -1.</_>
        <_>
          5 4 4 3 2.</_></rects>
      <tilted>0</tilted></_>
    <_>
      <rects>
        <_>
          1 13 8 6 -1.</_>
        <_>
          1 13 4 3 2.</_>
        <_>
          5 16 4 3 2.</_></rects>
      <tilted>0</tilted></_>
    <_>
      <rects>
        <_>
          1 14 6 2 -1.</_>
        <_>
          1 15 6 1 2.</_></rects>
      <tilted>0</tilted></_>
    <_>
      <rects>
        <_>
          2 0 10 6 -1.</_>
        <_>
          2 0 5 3 2.</_>
        <_>
          7 3 5 3 2.</_></rects>
      <tilted>0</tilted></_>
    <_>
      <rects>
        <_>
          2 0 12 12 -1.</_>
        <_>
          2 0 6 6 2.</_>
        <_>
          8 6 6 6 2.</_></rects>
      <tilted>0</tilted></_>
    <_>
      <rects>
        <_>
          2 0 17 2 -1.</_>
        <_>
          2 1 17 1 2.</_></rects>
      <tilted>0</tilted></_>
    <_>
      <rects>
        <_>
          2 1 4 10 -1.</_>
        <_>
          2 1 2 5 2.</_>
        <_>
          4 6 2 5 2.</_></rects>
      <tilted>0</tilted></_>
    <_>
      <rects>
        <_>
          2 2 21 1 -1.</_>
        <_>
          9 2 7 1 2.</_></rects>
      <tilted>0</tilted></_>
    <_>
      <rects>
        <_>
          2 3 18 2 -1.</_>
        <_>
          2 3 9 1 2.</_>
        <_>
          11 4 9 1 2.</_></rects>
      <tilted>0</tilted></_>
    <_>
      <rects>
        <_>
          2 8 13 8 -1.</_>
        <_>
          2 12 13 4 2.</_></rects>
      <tilted>0</tilted></_>
    <_>
      <rects>
        <_>
          2 13 5 2 -1.</_>
        <_>
          2 14 5 1 2.</_></rects>
      <tilted>0</tilted></_>
    <_>
      <rects>
        <_>
          2 15 20 4 -1.</_>
        <_>
          2 15 10 2 2.</_>
        <_>
          12 17 10 2 2.</_></rects>
      <tilted>0</tilted></_>
    <_>
      <rects>
        <_>
          2 19 8 4 -1.</_>
        <_>
          6 19 4 4 2.</_></rects>
      <tilted>0</tilted></_>
    <_>
      <rects>
        <_>
          2 21 21 1 -1.</_>
        <_>
          9 21 7 1 2.</_></rects>
      <tilted>0</tilted></_>
    <_>
      <rects>
        <_>
          2 22 6 2 -1.</_>
        <_>
          2 22 3 1 2.</_>
        <_>
          5 23 3 1 2.</_></rects>
      <tilted>0</tilted></_>
    <_>
      <rects>
        <_>
          3 0 1 2 -1.</_>
        <_>
          3 1 1 1 2.</_></rects>
      <tilted>0</tilted></_>
    <_>
      <rects>
        <_>
          3 0 6 6 -1.</_>
        <_>
          3 0 3 3 2.</_>
        <_>
          6 3 3 3 2.</_></rects>
      <tilted>0</tilted></_>
    <_>
      <rects>
        <_>
          3 0 10 8 -1.</_>
        <_>
          3 0 5 4 2.</_>
        <_>
          8 4 5 4 2.</_></rects>
      <tilted>0</tilted></_>
    <_>
      <rects>
        <_>
          3 2 1 2 -1.</_>
        <_>
          3 3 1 1 2.</_></rects>
      <tilted>0</tilted></_>
    <_>
      <rects>
        <_>
          3 6 6 2 -1.</_>
        <_>
          3 7 6 1 2.</_></rects>
      <tilted>0</tilted></_>
    <_>
      <rects>
        <_>
          3 10 4 14 -1.</_>
        <_>
          3 10 2 7 2.</_>
        <_>
          5 17 2 7 2.</_></rects>
      <tilted>0</tilted></_>
    <_>
      <rects>
        <_>
          3 12 4 12 -1.</_>
        <_>
          3 12 2 6 2.</_>
        <_>
          5 18 2 6 2.</_></rects>
      <tilted>0</tilted></_>
    <_>
      <rects>
        <_>
          3 12 5 2 -1.</_>
        <_>
          3 13 5 1 2.</_></rects>
      <tilted>0</tilted></_>
    <_>
      <rects>
        <_>
          3 14 4 8 -1.</_>
        <_>
          3 14 2 4 2.</_>
        <_>
          5 18 2 4 2.</_></rects>
      <tilted>0</tilted></_>
    <_>
      <rects>
        <_>
          3 20 10 4 -1.</_>
        <_>
          3 20 5 2 2.</_>
        <_>
          8 22 5 2 2.</_></rects>
      <tilted>0</tilted></_>
    <_>
      <rects>
        <_>
          3 21 18 1 -1.</_>
        <_>
          9 21 6 1 2.</_></rects>
      <tilted>0</tilted></_>
    <_>
      <rects>
        <_>
          4 0 8 4 -1.</_>
        <_>
          4 0 4 2 2.</_>
        <_>
          8 2 4 2 2.</_></rects>
      <tilted>0</tilted></_>
    <_>
      <rects>
        <_>
          4 1 2 2 -1.</_>
        <_>
          5 1 1 2 2.</_></rects>
      <tilted>0</tilted></_>
    <_>
      <rects>
        <_>
          4 1 6 8 -1.</_>
        <_>
          4 1 3 4 2.</_>
        <_>
          7 5 3 4 2.</_></rects>
      <tilted>0</tilted></_>
    <_>
      <rects>
        <_>
          4 3 8 11 -1.</_>
        <_>
          8 3 4 11 2.</_></rects>
      <tilted>0</tilted></_>
    <_>
      <rects>
        <_>
          4 7 4 17 -1.</_>
        <_>
          6 7 2 17 2.</_></rects>
      <tilted>0</tilted></_>
    <_>
      <rects>
        <_>
          4 7 13 10 -1.</_>
        <_>
          4 12 13 5 2.</_></rects>
      <tilted>0</tilted></_>
    <_>
      <rects>
        <_>
          4 8 13 10 -1.</_>
        <_>
          4 13 13 5 2.</_></rects>
      <tilted>0</tilted></_>
    <_>
      <rects>
        <_>
          4 10 4 2 -1.</_>
        <_>
          4 10 2 1 2.</_>
        <_>
          6 11 2 1 2.</_></rects>
      <tilted>0</tilted></_>
    <_>
      <rects>
        <_>
          4 12 12 2 -1.</_>
        <_>
          4 13 12 1 2.</_></rects>
      <tilted>0</tilted></_>
    <_>
      <rects>
        <_>
          4 16 4 8 -1.</_>
        <_>
          4 16 2 4 2.</_>
        <_>
          6 20 2 4 2.</_></rects>
      <tilted>0</tilted></_>
    <_>
      <rects>
        <_>
          4 18 4 6 -1.</_>
        <_>
          4 18 2 3 2.</_>
        <_>
          6 21 2 3 2.</_></rects>
      <tilted>0</tilted></_>
    <_>
      <rects>
        <_>
          5 4 16 6 -1.</_>
        <_>
          5 4 8 3 2.</_>
        <_>
          13 7 8 3 2.</_></rects>
      <tilted>0</tilted></_>
    <_>
      <rects>
        <_>
          5 5 10 4 -1.</_>
        <_>
          5 5 5 2 2.</_>
        <_>
          10 7 5 2 2.</_></rects>
      <tilted>0</tilted></_>
    <_>
      <rects>
        <_>
          5 5 9 6 -1.</_>
        <_>
          5 8 9 3 2.</_></rects>
      <tilted>0</tilted></_>
    <_>
      <rects>
        <_>
          5 5 15 10 -1.</_>
        <_>
          5 10 15 5 2.</_></rects>
      <tilted>0</tilted></_>
    <_>
      <rects>
        <_>
          5 11 15 2 -1.</_>
        <_>
          5 12 15 1 2.</_></rects>
      <tilted>0</tilted></_>
    <_>
      <rects>
        <_>
          5 12 16 2 -1.</_>
        <_>
          5 13 16 1 2.</_></rects>
      <tilted>0</tilted></_>
    <_>
      <rects>
        <_>
          5 17 4 6 -1.</_>
        <_>
          5 20 4 3 2.</_></rects>
      <tilted>0</tilted></_>
    <_>
      <rects>
        <_>
          6 6 6 10 -1.</_>
        <_>
          6 6 3 5 2.</_>
        <_>
          9 11 3 5 2.</_></rects>
      <tilted>0</tilted></_>
    <_>
      <rects>
        <_>
          6 6 12 14 -1.</_>
        <_>
          6 6 6 7 2.</_>
        <_>
          12 13 6 7 2.</_></rects>
      <tilted>0</tilted></_>
    <_>
      <rects>
        <_>
          6 10 14 10 -1.</_>
        <_>
          6 10 7 5 2.</_>
        <_>
          13 15 7 5 2.</_></rects>
      <tilted>0</tilted></_>
    <_>
      <rects>
        <_>
          6 18 4 4 -1.</_>
        <_>
          6 18 2 2 2.</_>
        <_>
          8 20 2 2 2.</_></rects>
      <tilted>0</tilted></_>
    <_>
      <rects>
        <_>
          6 23 10 1 -1.</_>
        <_>
          11 23 5 1 2.</_></rects>
      <tilted>0</tilted></_>
    <_>
      <rects>
        <_>
          7 0 13 12 -1.</_>
        <_>
          7 4 13 4 2.</_></rects>
      <tilted>0</tilted></_>
    <_>
      <rects>
        <_>
          7 7 4 6 -1.</_>
        <_>
          7 10 4 3 2.</_></rects>
      <tilted>0</tilted></_>
    <_>
      <rects>
        <_>
          7 9 9 2 -1.</_>
        <_>
          7 10 9 1 2.</_></rects>
      <tilted>0</tilted></_>
    <_>
      <rects>
        <_>
          7 11 4 3 -1.</_>
        <_>
          7 12 4 1 2.</_></rects>
      <tilted>0</tilted></_>
    <_>
      <rects>
        <_>
          7 11 8 2 -1.</_>
        <_>
          7 12 8 1 2.</_></rects>
      <tilted>0</tilted></_>
    <_>
      <rects>
        <_>
          7 11 11 10 -1.</_>
        <_>
          7 16 11 5 2.</_></rects>
      <tilted>0</tilted></_>
    <_>
      <rects>
        <_>
          7 13 2 6 -1.</_>
        <_>
          7 16 2 3 2.</_></rects>
      <tilted>0</tilted></_>
    <_>
      <rects>
        <_>
          7 13 15 6 -1.</_>
        <_>
          7 16 15 3 2.</_></rects>
      <tilted>0</tilted></_>
    <_>
      <rects>
        <_>
          7 14 9 10 -1.</_>
        <_>
          7 19 9 5 2.</_></rects>
      <tilted>0</tilted></_>
    <_>
      <rects>
        <_>
          7 14 13 4 -1.</_>
        <_>
          7 16 13 2 2.</_></rects>
      <tilted>0</tilted></_>
    <_>
      <rects>
        <_>
          7 19 4 4 -1.</_>
        <_>
          7 19 2 2 2.</_>
        <_>
          9 21 2 2 2.</_></rects>
      <tilted>0</tilted></_>
    <_>
      <rects>
        <_>
          8 0 14 8 -1.</_>
        <_>
          8 0 7 4 2.</_>
        <_>
          15 4 7 4 2.</_></rects>
      <tilted>0</tilted></_>
    <_>
      <rects>
        <_>
          8 1 9 8 -1.</_>
        <_>
          8 5 9 4 2.</_></rects>
      <tilted>0</tilted></_>
    <_>
      <rects>
        <_>
          8 2 16 6 -1.</_>
        <_>
          16 2 8 6 2.</_></rects>
      <tilted>0</tilted></_>
    <_>
      <rects>
        <_>
          8 9 5 12 -1.</_>
        <_>
          8 15 5 6 2.</_></rects>
      <tilted>0</tilted></_>
    <_>
      <rects>
        <_>
          8 15 6 4 -1.</_>
        <_>
          8 15 3 2 2.</_>
        <_>
          11 17 3 2 2.</_></rects>
      <tilted>0</tilted></_>
    <_>
      <rects>
        <_>
          8 19 11 4 -1.</_>
        <_>
          8 21 11 2 2.</_></rects>
      <tilted>0</tilted></_>
    <_>
      <rects>
        <_>
          8 20 16 3 -1.</_>
        <_>
          16 20 8 3 2.</_></rects>
      <tilted>0</tilted></_>
    <_>
      <rects>
        <_>
          8 20 10 4 -1.</_>
        <_>
          8 22 10 2 2.</_></rects>
      <tilted>0</tilted></_>
    <_>
      <rects>
        <_>
          9 0 6 12 -1.</_>
        <_>
          9 4 6 4 2.</_></rects>
      <tilted>0</tilted></_>
    <_>
      <rects>
        <_>
          9 0 14 10 -1.</_>
        <_>
          9 0 7 5 2.</_>
        <_>
          16 5 7 5 2.</_></rects>
      <tilted>0</tilted></_>
    <_>
      <rects>
        <_>
          9 0 8 8 -1.</_>
        <_>
          9 4 8 4 2.</_></rects>
      <tilted>0</tilted></_>
    <_>
      <rects>
        <_>
          9 1 2 3 -1.</_>
        <_>
          10 1 1 3 2.</_></rects>
      <tilted>0</tilted></_>
    <_>
      <rects>
        <_>
          10 1 6 6 -1.</_>
        <_>
          10 4 6 3 2.</_></rects>
      <tilted>0</tilted></_>
    <_>
      <rects>
        <_>
          10 1 7 4 -1.</_>
        <_>
          10 3 7 2 2.</_></rects>
      <tilted>0</tilted></_>
    <_>
      <rects>
        <_>
          10 1 14 4 -1.</_>
        <_>
          10 1 7 2 2.</_>
        <_>
          17 3 7 2 2.</_></rects>
      <tilted>0</tilted></_>
    <_>
      <rects>
        <_>
          10 6 3 12 -1.</_>
        <_>
          10 12 3 6 2.</_></rects>
      <tilted>0</tilted></_>
    <_>
      <rects>
        <_>
          10 7 6 4 -1.</_>
        <_>
          10 9 6 2 2.</_></rects>
      <tilted>0</tilted></_>
    <_>
      <rects>
        <_>
          10 8 14 8 -1.</_>
        <_>
          10 12 14 4 2.</_></rects>
      <tilted>0</tilted></_>
    <_>
      <rects>
        <_>
          10 10 8 6 -1.</_>
        <_>
          10 13 8 3 2.</_></rects>
      <tilted>0</tilted></_>
    <_>
      <rects>
        <_>
          10 11 4 6 -1.</_>
        <_>
          10 14 4 3 2.</_></rects>
      <tilted>0</tilted></_>
    <_>
      <rects>
        <_>
          10 11 7 2 -1.</_>
        <_>
          10 12 7 1 2.</_></rects>
      <tilted>0</tilted></_>
    <_>
      <rects>
        <_>
          10 18 1 4 -1.</_>
        <_>
          10 20 1 2 2.</_></rects>
      <tilted>0</tilted></_>
    <_>
      <rects>
        <_>
          10 20 1 4 -1.</_>
        <_>
          10 22 1 2 2.</_></rects>
      <tilted>0</tilted></_>
    <_>
      <rects>
        <_>
          11 0 2 5 -1.</_>
        <_>
          12 0 1 5 2.</_></rects>
      <tilted>0</tilted></_>
    <_>
      <rects>
        <_>
          11 0 8 10 -1.</_>
        <_>
          11 0 4 5 2.</_>
        <_>
          15 5 4 5 2.</_></rects>
      <tilted>0</tilted></_>
    <_>
      <rects>
        <_>
          11 0 10 8 -1.</_>
        <_>
          11 0 5 4 2.</_>
        <_>
          16 4 5 4 2.</_></rects>
      <tilted>0</tilted></_>
    <_>
      <rects>
        <_>
          11 5 2 4 -1.</_>
        <_>
          11 5 1 2 2.</_>
        <_>
          12 7 1 2 2.</_></rects>
      <tilted>0</tilted></_>
    <_>
      <rects>
        <_>
          11 5 8 4 -1.</_>
        <_>
          15 5 4 4 2.</_></rects>
      <tilted>0</tilted></_>
    <_>
      <rects>
        <_>
          11 8 6 4 -1.</_>
        <_>
          11 8 3 2 2.</_>
        <_>
          14 10 3 2 2.</_></rects>
      <tilted>0</tilted></_>
    <_>
      <rects>
        <_>
          11 8 8 12 -1.</_>
        <_>
          11 8 4 6 2.</_>
        <_>
          15 14 4 6 2.</_></rects>
      <tilted>0</tilted></_>
    <_>
      <rects>
        <_>
          11 18 7 6 -1.</_>
        <_>
          11 20 7 2 2.</_></rects>
      <tilted>0</tilted></_>
    <_>
      <rects>
        <_>
          11 19 3 1 -1.</_>
        <_>
          12 19 1 1 2.</_></rects>
      <tilted>0</tilted></_>
    <_>
      <rects>
        <_>
          12 0 2 4 -1.</_>
        <_>
          13 0 1 4 2.</_></rects>
      <tilted>0</tilted></_>
    <_>
      <rects>
        <_>
          12 0 12 4 -1.</_>
        <_>
          18 0 6 4 2.</_></rects>
      <tilted>0</tilted></_>
    <_>
      <rects>
        <_>
          12 6 12 16 -1.</_>
        <_>
          18 6 6 16 2.</_></rects>
      <tilted>0</tilted></_>
    <_>
      <rects>
        <_>
          12 7 4 6 -1.</_>
        <_>
          14 7 2 6 2.</_></rects>
      <tilted>0</tilted></_>
    <_>
      <rects>
        <_>
          12 8 2 3 -1.</_>
        <_>
          12 9 2 1 2.</_></rects>
      <tilted>0</tilted></_>
    <_>
      <rects>
        <_>
          12 11 2 2 -1.</_>
        <_>
          12 11 1 1 2.</_>
        <_>
          13 12 1 1 2.</_></rects>
      <tilted>0</tilted></_>
    <_>
      <rects>
        <_>
          13 0 8 6 -1.</_>
        <_>
          13 0 4 3 2.</_>
        <_>
          17 3 4 3 2.</_></rects>
      <tilted>0</tilted></_>
    <_>
      <rects>
        <_>
          13 1 2 1 -1.</_>
        <_>
          14 1 1 1 2.</_></rects>
      <tilted>0</tilted></_>
    <_>
      <rects>
        <_>
          13 1 10 1 -1.</_>
        <_>
          18 1 5 1 2.</_></rects>
      <tilted>0</tilted></_>
    <_>
      <rects>
        <_>
          13 6 2 2 -1.</_>
        <_>
          13 6 1 1 2.</_>
        <_>
          14 7 1 1 2.</_></rects>
      <tilted>0</tilted></_>
    <_>
      <rects>
        <_>
          13 6 6 2 -1.</_>
        <_>
          13 6 3 1 2.</_>
        <_>
          16 7 3 1 2.</_></rects>
      <tilted>0</tilted></_>
    <_>
      <rects>
        <_>
          13 13 8 10 -1.</_>
        <_>
          17 13 4 10 2.</_></rects>
      <tilted>0</tilted></_>
    <_>
      <rects>
        <_>
          13 15 6 8 -1.</_>
        <_>
          13 15 3 4 2.</_>
        <_>
          16 19 3 4 2.</_></rects>
      <tilted>0</tilted></_>
    <_>
      <rects>
        <_>
          13 15 8 8 -1.</_>
        <_>
          17 15 4 8 2.</_></rects>
      <tilted>0</tilted></_>
    <_>
      <rects>
        <_>
          13 17 6 4 -1.</_>
        <_>
          13 17 3 2 2.</_>
        <_>
          16 19 3 2 2.</_></rects>
      <tilted>0</tilted></_>
    <_>
      <rects>
        <_>
          14 0 10 14 -1.</_>
        <_>
          14 0 5 7 2.</_>
        <_>
          19 7 5 7 2.</_></rects>
      <tilted>0</tilted></_>
    <_>
      <rects>
        <_>
          14 1 1 12 -1.</_>
        <_>
          14 5 1 4 2.</_></rects>
      <tilted>0</tilted></_>
    <_>
      <rects>
        <_>
          14 1 10 18 -1.</_>
        <_>
          19 1 5 18 2.</_></rects>
      <tilted>0</tilted></_>
    <_>
      <rects>
        <_>
          14 5 7 2 -1.</_>
        <_>
          14 6 7 1 2.</_></rects>
      <tilted>0</tilted></_>
    <_>
      <rects>
        <_>
          14 16 4 8 -1.</_>
        <_>
          14 16 2 4 2.</_>
        <_>
          16 20 2 4 2.</_></rects>
      <tilted>0</tilted></_>
    <_>
      <rects>
        <_>
          14 16 5 2 -1.</_>
        <_>
          14 17 5 1 2.</_></rects>
      <tilted>0</tilted></_>
    <_>
      <rects>
        <_>
          14 23 6 1 -1.</_>
        <_>
          17 23 3 1 2.</_></rects>
      <tilted>0</tilted></_>
    <_>
      <rects>
        <_>
          15 1 6 10 -1.</_>
        <_>
          15 1 3 5 2.</_>
        <_>
          18 6 3 5 2.</_></rects>
      <tilted>0</tilted></_>
    <_>
      <rects>
        <_>
          15 3 2 6 -1.</_>
        <_>
          16 3 1 6 2.</_></rects>
      <tilted>0</tilted></_>
    <_>
      <rects>
        <_>
          15 5 2 8 -1.</_>
        <_>
          15 5 1 4 2.</_>
        <_>
          16 9 1 4 2.</_></rects>
      <tilted>0</tilted></_>
    <_>
      <rects>
        <_>
          15 14 2 4 -1.</_>
        <_>
          15 16 2 2 2.</_></rects>
      <tilted>0</tilted></_>
    <_>
      <rects>
        <_>
          15 15 8 3 -1.</_>
        <_>
          19 15 4 3 2.</_></rects>
      <tilted>0</tilted></_>
    <_>
      <rects>
        <_>
          15 17 2 4 -1.</_>
        <_>
          15 17 1 2 2.</_>
        <_>
          16 19 1 2 2.</_></rects>
      <tilted>0</tilted></_>
    <_>
      <rects>
        <_>
          16 6 7 2 -1.</_>
        <_>
          16 7 7 1 2.</_></rects>
      <tilted>0</tilted></_>
    <_>
      <rects>
        <_>
          16 8 4 15 -1.</_>
        <_>
          18 8 2 15 2.</_></rects>
      <tilted>0</tilted></_>
    <_>
      <rects>
        <_>
          16 13 2 6 -1.</_>
        <_>
          16 15 2 2 2.</_></rects>
      <tilted>0</tilted></_>
    <_>
      <rects>
        <_>
          16 15 3 2 -1.</_>
        <_>
          16 16 3 1 2.</_></rects>
      <tilted>0</tilted></_>
    <_>
      <rects>
        <_>
          16 15 8 8 -1.</_>
        <_>
          16 15 4 4 2.</_>
        <_>
          20 19 4 4 2.</_></rects>
      <tilted>0</tilted></_>
    <_>
      <rects>
        <_>
          16 19 2 2 -1.</_>
        <_>
          16 20 2 1 2.</_></rects>
      <tilted>0</tilted></_>
    <_>
      <rects>
        <_>
          17 4 4 16 -1.</_>
        <_>
          19 4 2 16 2.</_></rects>
      <tilted>0</tilted></_>
    <_>
      <rects>
        <_>
          17 8 2 4 -1.</_>
        <_>
          17 8 1 2 2.</_>
        <_>
          18 10 1 2 2.</_></rects>
      <tilted>0</tilted></_>
    <_>
      <rects>
        <_>
          17 13 4 10 -1.</_>
        <_>
          17 13 2 5 2.</_>
        <_>
          19 18 2 5 2.</_></rects>
      <tilted>0</tilted></_>
    <_>
      <rects>
        <_>
          18 5 6 3 -1.</_>
        <_>
          21 5 3 3 2.</_></rects>
      <tilted>0</tilted></_>
    <_>
      <rects>
        <_>
          19 1 4 2 -1.</_>
        <_>
          19 2 4 1 2.</_></rects>
      <tilted>0</tilted></_>
    <_>
      <rects>
        <_>
          20 1 2 3 -1.</_>
        <_>
          21 1 1 3 2.</_></rects>
      <tilted>0</tilted></_>
    <_>
      <rects>
        <_>
          21 1 2 1 -1.</_>
        <_>
          22 1 1 1 2.</_></rects>
      <tilted>0</tilted></_>
    <_>
      <rects>
        <_>
          21 9 2 2 -1.</_>
        <_>
          21 10 2 1 2.</_></rects>
      <tilted>0</tilted></_>
    <_>
      <rects>
        <_>
          22 11 1 4 -1.</_>
        <_>
          22 13 1 2 2.</_></rects>
      <tilted>0</tilted></_>
    <_>
      <rects>
        <_>
          23 4 1 4 -1.</_>
        <_>
          23 6 1 2 2.</_></rects>
      <tilted>0</tilted></_></features></cascade>
</opencv_storage>
