<?xml version="1.0"?>
<opencv_storage>
<stage3>
  <maxWeakCount>10</maxWeakCount>
  <stageThreshold>-1.7502778768539429e+00</stageThreshold>
  <weakClassifiers>
    <_>
      <internalNodes>
        0 -1 38319 4.4779706746339798e-02</internalNodes>
      <leafValues>
        -7.9166668653488159e-01 2.5000000000000000e-01</leafValues></_>
    <_>
      <internalNodes>
        0 -1 125104 -7.0838360115885735e-03</internalNodes>
      <leafValues>
        8.1199459731578827e-02 -8.0549198389053345e-01</leafValues></_>
    <_>
      <internalNodes>
        0 -1 340 -2.7062956243753433e-02</internalNodes>
      <leafValues>
        5.2488696575164795e-01 -3.4049469232559204e-01</leafValues></_>
    <_>
      <internalNodes>
        0 -1 147786 1.3517763465642929e-02</internalNodes>
      <leafValues>
        -3.0621346831321716e-01 5.3686118125915527e-01</leafValues></_>
    <_>
      <internalNodes>
        0 -1 87474 6.5019284375011921e-04</internalNodes>
      <leafValues>
        2.2017325460910797e-01 -7.4037271738052368e-01</leafValues></_>
    <_>
      <internalNodes>
        0 -1 128789 3.4757382236421108e-03</internalNodes>
      <leafValues>
        -2.9781574010848999e-01 4.7578528523445129e-01</leafValues></_>
    <_>
      <internalNodes>
        0 -1 55036 2.5432797148823738e-02</internalNodes>
      <leafValues>
        -2.3079074919223785e-01 6.9581681489944458e-01</leafValues></_>
    <_>
      <internalNodes>
        0 -1 37502 -1.9384250044822693e-02</internalNodes>
      <leafValues>
        6.6697001457214355e-01 -2.1107158064842224e-01</leafValues></_>
    <_>
      <internalNodes>
        0 -1 91714 -7.3269255459308624e-02</internalNodes>
      <leafValues>
        6.4169812202453613e-01 -2.1145185828208923e-01</leafValues></_>
    <_>
      <internalNodes>
        0 -1 68504 3.6098817363381386e-03</internalNodes>
      <leafValues>
        -3.4773942828178406e-01 4.3301847577095032e-01</leafValues></_></weakClassifiers></stage3>
</opencv_storage>
