<?xml version="1.0"?>
<opencv_storage>
<stage1>
  <maxWeakCount>6</maxWeakCount>
  <stageThreshold>-1.3679562807083130e+00</stageThreshold>
  <weakClassifiers>
    <_>
      <internalNodes>
        0 -1 114747 -3.2808095216751099e-02</internalNodes>
      <leafValues>
        1.4000000059604645e-01 -8.2800000905990601e-01</leafValues></_>
    <_>
      <internalNodes>
        0 -1 121009 -1.0033895075321198e-01</internalNodes>
      <leafValues>
        -9.1705995798110962e-01 1.7447750270366669e-01</leafValues></_>
    <_>
      <internalNodes>
        0 -1 87418 1.7530280165374279e-03</internalNodes>
      <leafValues>
        -5.7158434391021729e-01 3.8751992583274841e-01</leafValues></_>
    <_>
      <internalNodes>
        0 -1 52294 1.8977062776684761e-02</internalNodes>
      <leafValues>
        -4.7624015808105469e-01 6.0055595636367798e-01</leafValues></_>
    <_>
      <internalNodes>
        0 -1 132677 -4.2195841670036316e-02</internalNodes>
      <leafValues>
        7.1153503656387329e-01 -2.0616264641284943e-01</leafValues></_>
    <_>
      <internalNodes>
        0 -1 133049 3.6063849925994873e-02</internalNodes>
      <leafValues>
        -2.4571105837821960e-01 7.8211390972137451e-01</leafValues></_></weakClassifiers></stage1>
</opencv_storage>
