<?xml version="1.0"?>
<opencv_storage>
<stage9>
  <maxWeakCount>17</maxWeakCount>
  <stageThreshold>-1.3721504211425781e+00</stageThreshold>
  <weakClassifiers>
    <_>
      <internalNodes>
        0 -1 37840 -3.0771209858357906e-03</internalNodes>
      <leafValues>
        -7.1073645353317261e-01 1.3698630034923553e-02</leafValues></_>
    <_>
      <internalNodes>
        0 -1 6032 -3.2591525465250015e-02</internalNodes>
      <leafValues>
        3.2289984822273254e-01 -3.1558567285537720e-01</leafValues></_>
    <_>
      <internalNodes>
        0 -1 26138 3.2544974237680435e-02</internalNodes>
      <leafValues>
        -1.9583040475845337e-01 4.0110823512077332e-01</leafValues></_>
    <_>
      <internalNodes>
        0 -1 112392 3.6123779136687517e-03</internalNodes>
      <leafValues>
        -2.4240258336067200e-01 3.2138925790786743e-01</leafValues></_>
    <_>
      <internalNodes>
        0 -1 39808 9.2754012439399958e-04</internalNodes>
      <leafValues>
        8.7376587092876434e-02 -7.2669661045074463e-01</leafValues></_>
    <_>
      <internalNodes>
        0 -1 155573 3.4173869062215090e-03</internalNodes>
      <leafValues>
        8.6923211812973022e-02 -8.9760792255401611e-01</leafValues></_>
    <_>
      <internalNodes>
        0 -1 85446 -5.4876012727618217e-03</internalNodes>
      <leafValues>
        3.3371159434318542e-01 -2.1689456701278687e-01</leafValues></_>
    <_>
      <internalNodes>
        0 -1 118363 -4.4520539231598377e-03</internalNodes>
      <leafValues>
        3.8657799363136292e-01 -1.9493447244167328e-01</leafValues></_>
    <_>
      <internalNodes>
        0 -1 64520 -1.6404241323471069e-02</internalNodes>
      <leafValues>
        -7.9614228010177612e-01 7.9788252711296082e-02</leafValues></_>
    <_>
      <internalNodes>
        0 -1 38154 -7.3324902914464474e-03</internalNodes>
      <leafValues>
        4.9497711658477783e-01 -1.2315003573894501e-01</leafValues></_>
    <_>
      <internalNodes>
        0 -1 28179 -1.2331264093518257e-02</internalNodes>
      <leafValues>
        -1.1090461164712906e-01 5.5629509687423706e-01</leafValues></_>
    <_>
      <internalNodes>
        0 -1 161836 3.0955101829022169e-04</internalNodes>
      <leafValues>
        1.7220577597618103e-01 -3.5315346717834473e-01</leafValues></_>
    <_>
      <internalNodes>
        0 -1 26907 7.9288091510534286e-03</internalNodes>
      <leafValues>
        -1.5276572108268738e-01 3.9377701282501221e-01</leafValues></_>
    <_>
      <internalNodes>
        0 -1 121732 5.4179579019546509e-02</internalNodes>
      <leafValues>
        -1.5736219286918640e-01 4.3158510327339172e-01</leafValues></_>
    <_>
      <internalNodes>
        0 -1 117194 -7.9500898718833923e-03</internalNodes>
      <leafValues>
        2.4267186224460602e-01 -2.5384065508842468e-01</leafValues></_>
    <_>
      <internalNodes>
        0 -1 114676 1.6785129904747009e-02</internalNodes>
      <leafValues>
        -1.5670929849147797e-01 5.8665663003921509e-01</leafValues></_>
    <_>
      <internalNodes>
        0 -1 110262 -2.6534885168075562e-02</internalNodes>
      <leafValues>
        -9.3135887384414673e-01 8.3314187824726105e-02</leafValues></_></weakClassifiers></stage9>
</opencv_storage>
