<?xml version="1.0"?>
<opencv_storage>
<stage9>
  <maxWeakCount>76</maxWeakCount>
  <stageThreshold>-1.3196710348129272e+00</stageThreshold>
  <weakClassifiers>
    <_>
      <internalNodes>
        0 -1 1629 -2.8166212141513824e-02</internalNodes>
      <leafValues>
        -4.0425533056259155e-01 -7.1067142486572266e-01</leafValues></_>
    <_>
      <internalNodes>
        0 -1 93669 -2.7482106816023588e-04</internalNodes>
      <leafValues>
        -4.7395652532577515e-01 -5.8207649737596512e-02</leafValues></_>
    <_>
      <internalNodes>
        0 -1 113943 8.0959108890965581e-04</internalNodes>
      <leafValues>
        -1.1885816603899002e-01 2.4559421837329865e-01</leafValues></_>
    <_>
      <internalNodes>
        0 -1 151884 -8.4392377175390720e-05</internalNodes>
      <leafValues>
        -2.4617737531661987e-01 1.1766658723354340e-01</leafValues></_>
    <_>
      <internalNodes>
        0 -1 149655 -8.5231522098183632e-04</internalNodes>
      <leafValues>
        1.7936743795871735e-01 -1.4411891996860504e-01</leafValues></_>
    <_>
      <internalNodes>
        0 -1 27867 -5.5645920336246490e-02</internalNodes>
      <leafValues>
        5.8892697095870972e-01 -2.0415417850017548e-02</leafValues></_>
    <_>
      <internalNodes>
        0 -1 119391 4.9932049587368965e-03</internalNodes>
      <leafValues>
        -9.2714607715606689e-02 2.6744121313095093e-01</leafValues></_>
    <_>
      <internalNodes>
        0 -1 135628 2.5469847023487091e-02</internalNodes>
      <leafValues>
        -6.1879586428403854e-02 4.8031890392303467e-01</leafValues></_>
    <_>
      <internalNodes>
        0 -1 31232 9.6322046592831612e-03</internalNodes>
      <leafValues>
        -7.0201866328716278e-02 3.2014429569244385e-01</leafValues></_>
    <_>
      <internalNodes>
        0 -1 38115 -4.2043524445034564e-04</internalNodes>
      <leafValues>
        -1.8427893519401550e-01 1.3730186223983765e-01</leafValues></_>
    <_>
      <internalNodes>
        0 -1 38159 -2.1798349916934967e-02</internalNodes>
      <leafValues>
        6.3256227970123291e-01 -4.3075017631053925e-02</leafValues></_>
    <_>
      <internalNodes>
        0 -1 54291 -1.2023740448057652e-02</internalNodes>
      <leafValues>
        4.2308205366134644e-01 -5.8416988700628281e-02</leafValues></_>
    <_>
      <internalNodes>
        0 -1 114432 -3.4331781789660454e-03</internalNodes>
      <leafValues>
        -5.4115301370620728e-01 3.6851406097412109e-02</leafValues></_>
    <_>
      <internalNodes>
        0 -1 144934 -2.1804010495543480e-02</internalNodes>
      <leafValues>
        2.1201057732105255e-01 -1.1609154194593430e-01</leafValues></_>
    <_>
      <internalNodes>
        0 -1 96583 2.6968303136527538e-03</internalNodes>
      <leafValues>
        -1.2322765588760376e-01 2.0027360320091248e-01</leafValues></_>
    <_>
      <internalNodes>
        0 -1 119445 1.2279981747269630e-02</internalNodes>
      <leafValues>
        4.0263656526803970e-02 -5.8973729610443115e-01</leafValues></_>
    <_>
      <internalNodes>
        0 -1 145127 9.7396709024906158e-03</internalNodes>
      <leafValues>
        -8.1306353211402893e-02 3.3334189653396606e-01</leafValues></_>
    <_>
      <internalNodes>
        0 -1 81051 -5.0903849303722382e-02</internalNodes>
      <leafValues>
        -4.0682911872863770e-01 6.2134675681591034e-02</leafValues></_>
    <_>
      <internalNodes>
        0 -1 79864 -4.4877424836158752e-02</internalNodes>
      <leafValues>
        -3.1821808218955994e-01 7.7094130218029022e-02</leafValues></_>
    <_>
      <internalNodes>
        0 -1 70643 1.3298826524987817e-04</internalNodes>
      <leafValues>
        1.3008975982666016e-01 -2.1773488819599152e-01</leafValues></_>
    <_>
      <internalNodes>
        0 -1 113963 -1.8375555519014597e-03</internalNodes>
      <leafValues>
        2.9461500048637390e-01 -9.7844451665878296e-02</leafValues></_>
    <_>
      <internalNodes>
        0 -1 69454 1.2447463348507881e-02</internalNodes>
      <leafValues>
        7.6475501060485840e-02 -3.4185376763343811e-01</leafValues></_>
    <_>
      <internalNodes>
        0 -1 105002 1.7570555210113525e-02</internalNodes>
      <leafValues>
        -4.7969631850719452e-02 5.5331552028656006e-01</leafValues></_>
    <_>
      <internalNodes>
        0 -1 18041 -4.9582142382860184e-02</internalNodes>
      <leafValues>
        -4.3321672081947327e-01 5.7199392467737198e-02</leafValues></_>
    <_>
      <internalNodes>
        0 -1 48847 -1.6906589269638062e-01</internalNodes>
      <leafValues>
        7.5864493846893311e-01 -3.7789177149534225e-02</leafValues></_>
    <_>
      <internalNodes>
        0 -1 118640 -2.0981202833354473e-03</internalNodes>
      <leafValues>
        3.1180703639984131e-01 -8.2208126783370972e-02</leafValues></_>
    <_>
      <internalNodes>
        0 -1 118897 2.8882473707199097e-02</internalNodes>
      <leafValues>
        7.0305921137332916e-02 -3.9701670408248901e-01</leafValues></_>
    <_>
      <internalNodes>
        0 -1 69862 -5.9071825817227364e-03</internalNodes>
      <leafValues>
        2.4330733716487885e-01 -1.1176745593547821e-01</leafValues></_>
    <_>
      <internalNodes>
        0 -1 127849 2.3547592572867870e-03</internalNodes>
      <leafValues>
        4.0945626795291901e-02 -6.2540537118911743e-01</leafValues></_>
    <_>
      <internalNodes>
        0 -1 57588 8.5439588874578476e-03</internalNodes>
      <leafValues>
        -1.0362379252910614e-01 2.2743828594684601e-01</leafValues></_>
    <_>
      <internalNodes>
        0 -1 97053 -4.0356829762458801e-02</internalNodes>
      <leafValues>
        -3.0089437961578369e-01 9.2599779367446899e-02</leafValues></_>
    <_>
      <internalNodes>
        0 -1 2144 -1.3896878226660192e-04</internalNodes>
      <leafValues>
        -1.4278090000152588e-01 1.6589510440826416e-01</leafValues></_>
    <_>
      <internalNodes>
        0 -1 3271 7.6810165774077177e-04</internalNodes>
      <leafValues>
        7.6043911278247833e-02 -3.3338043093681335e-01</leafValues></_>
    <_>
      <internalNodes>
        0 -1 24172 2.9279191046953201e-02</internalNodes>
      <leafValues>
        -5.5111046880483627e-02 4.7228446602821350e-01</leafValues></_>
    <_>
      <internalNodes>
        0 -1 572 -2.9848646372556686e-02</internalNodes>
      <leafValues>
        -4.7308545559644699e-02 5.5126041173934937e-01</leafValues></_>
    <_>
      <internalNodes>
        0 -1 26810 -3.2141867559403181e-03</internalNodes>
      <leafValues>
        1.0464083403348923e-01 -2.4212999641895294e-01</leafValues></_>
    <_>
      <internalNodes>
        0 -1 157533 -1.3450528786052018e-04</internalNodes>
      <leafValues>
        -2.1555835008621216e-01 1.2426292896270752e-01</leafValues></_>
    <_>
      <internalNodes>
        0 -1 10572 -2.4326197803020477e-02</internalNodes>
      <leafValues>
        -4.5398157835006714e-01 5.7051256299018860e-02</leafValues></_>
    <_>
      <internalNodes>
        0 -1 105050 2.3279745131731033e-02</internalNodes>
      <leafValues>
        -5.9002432972192764e-02 4.7262638807296753e-01</leafValues></_>
    <_>
      <internalNodes>
        0 -1 65541 -7.7064469456672668e-02</internalNodes>
      <leafValues>
        -5.4847651720046997e-01 5.1279451698064804e-02</leafValues></_>
    <_>
      <internalNodes>
        0 -1 129448 6.9082190748304129e-04</internalNodes>
      <leafValues>
        -1.6043274104595184e-01 1.5862691402435303e-01</leafValues></_>
    <_>
      <internalNodes>
        0 -1 60780 -2.7375174686312675e-02</internalNodes>
      <leafValues>
        4.5477730035781860e-01 -5.8205891400575638e-02</leafValues></_>
    <_>
      <internalNodes>
        0 -1 29983 -2.2014047950506210e-02</internalNodes>
      <leafValues>
        -6.0164713859558105e-01 4.3420325964689255e-02</leafValues></_>
    <_>
      <internalNodes>
        0 -1 37556 -5.9431148692965508e-03</internalNodes>
      <leafValues>
        1.7694820463657379e-01 -1.3841786980628967e-01</leafValues></_>
    <_>
      <internalNodes>
        0 -1 88753 -5.8641500771045685e-02</internalNodes>
      <leafValues>
        -3.1810086965560913e-01 7.7757664024829865e-02</leafValues></_>
    <_>
      <internalNodes>
        0 -1 89466 -3.9446679875254631e-03</internalNodes>
      <leafValues>
        2.4760840833187103e-01 -1.0988823324441910e-01</leafValues></_>
    <_>
      <internalNodes>
        0 -1 135471 1.2367181479930878e-02</internalNodes>
      <leafValues>
        3.4124363213777542e-02 -6.7049425840377808e-01</leafValues></_>
    <_>
      <internalNodes>
        0 -1 126875 5.4211250972002745e-04</internalNodes>
      <leafValues>
        -1.2288819253444672e-01 2.0340928435325623e-01</leafValues></_>
    <_>
      <internalNodes>
        0 -1 113088 4.8652747645974159e-03</internalNodes>
      <leafValues>
        4.3614726513624191e-02 -5.6909126043319702e-01</leafValues></_>
    <_>
      <internalNodes>
        0 -1 78289 5.3571849130094051e-03</internalNodes>
      <leafValues>
        -1.2058589607477188e-01 2.1401968598365784e-01</leafValues></_>
    <_>
      <internalNodes>
        0 -1 73981 -7.0377672091126442e-03</internalNodes>
      <leafValues>
        -5.4600130766630173e-02 4.4046068191528320e-01</leafValues></_>
    <_>
      <internalNodes>
        0 -1 25742 -1.5237264335155487e-02</internalNodes>
      <leafValues>
        1.0935854911804199e-01 -2.7278047800064087e-01</leafValues></_>
    <_>
      <internalNodes>
        0 -1 101685 1.0699417907744646e-03</internalNodes>
      <leafValues>
        5.9235397726297379e-02 -3.8839939236640930e-01</leafValues></_>
    <_>
      <internalNodes>
        0 -1 117088 -7.6418239623308182e-03</internalNodes>
      <leafValues>
        2.5993520021438599e-01 -9.3799829483032227e-02</leafValues></_>
    <_>
      <internalNodes>
        0 -1 161007 1.0845090728253126e-03</internalNodes>
      <leafValues>
        6.2073871493339539e-02 -3.9372143149375916e-01</leafValues></_>
    <_>
      <internalNodes>
        0 -1 158464 -2.9492508620023727e-03</internalNodes>
      <leafValues>
        2.8422173857688904e-01 -9.0467527508735657e-02</leafValues></_>
    <_>
      <internalNodes>
        0 -1 161354 -8.4505658596754074e-03</internalNodes>
      <leafValues>
        -7.0483583211898804e-01 3.5795565694570541e-02</leafValues></_>
    <_>
      <internalNodes>
        0 -1 139325 8.5617946460843086e-03</internalNodes>
      <leafValues>
        -4.8352912068367004e-02 5.9092551469802856e-01</leafValues></_>
    <_>
      <internalNodes>
        0 -1 57433 4.0644183754920959e-02</internalNodes>
      <leafValues>
        4.7896187752485275e-02 -5.3933131694793701e-01</leafValues></_>
    <_>
      <internalNodes>
        0 -1 120768 6.6389550920575857e-04</internalNodes>
      <leafValues>
        -1.1297062784433365e-01 2.3882962763309479e-01</leafValues></_>
    <_>
      <internalNodes>
        0 -1 7888 -7.2709776461124420e-02</internalNodes>
      <leafValues>
        -6.3883876800537109e-01 3.9080575108528137e-02</leafValues></_>
    <_>
      <internalNodes>
        0 -1 113777 -1.3889572583138943e-03</internalNodes>
      <leafValues>
        2.8931891918182373e-01 -9.1161370277404785e-02</leafValues></_>
    <_>
      <internalNodes>
        0 -1 1 1.1134614760521799e-04</internalNodes>
      <leafValues>
        1.0148224979639053e-01 -2.4173180758953094e-01</leafValues></_>
    <_>
      <internalNodes>
        0 -1 148424 3.5302396863698959e-02</internalNodes>
      <leafValues>
        6.0962997376918793e-02 -3.8430708646774292e-01</leafValues></_>
    <_>
      <internalNodes>
        0 -1 148300 -4.0617833292344585e-05</internalNodes>
      <leafValues>
        -2.2051404416561127e-01 1.1521771550178528e-01</leafValues></_>
    <_>
      <internalNodes>
        0 -1 51295 -8.5928197950124741e-04</internalNodes>
      <leafValues>
        3.3243027329444885e-01 -8.7071172893047333e-02</leafValues></_>
    <_>
      <internalNodes>
        0 -1 146679 -1.9042659550905228e-03</internalNodes>
      <leafValues>
        3.2169364392757416e-02 -7.5932115316390991e-01</leafValues></_>
    <_>
      <internalNodes>
        0 -1 55717 -3.3660769462585449e-02</internalNodes>
      <leafValues>
        -8.3386585116386414e-02 3.5635006427764893e-01</leafValues></_>
    <_>
      <internalNodes>
        0 -1 124345 -3.7073269486427307e-03</internalNodes>
      <leafValues>
        1.8033072352409363e-01 -1.4573612809181213e-01</leafValues></_>
    <_>
      <internalNodes>
        0 -1 127608 -2.4804435670375824e-03</internalNodes>
      <leafValues>
        -9.7024995088577271e-01 2.3837769404053688e-02</leafValues></_>
    <_>
      <internalNodes>
        0 -1 130178 -1.4697168953716755e-03</internalNodes>
      <leafValues>
        -4.1539484262466431e-01 4.7979425638914108e-02</leafValues></_>
    <_>
      <internalNodes>
        0 -1 160845 2.7557169087231159e-03</internalNodes>
      <leafValues>
        -9.6248582005500793e-02 2.5159579515457153e-01</leafValues></_>
    <_>
      <internalNodes>
        0 -1 104751 4.6143140643835068e-03</internalNodes>
      <leafValues>
        2.7103245258331299e-02 -9.1342675685882568e-01</leafValues></_>
    <_>
      <internalNodes>
        0 -1 24114 4.2237201705574989e-03</internalNodes>
      <leafValues>
        -9.9727995693683624e-02 2.3575532436370850e-01</leafValues></_>
    <_>
      <internalNodes>
        0 -1 146537 -1.8571058288216591e-02</internalNodes>
      <leafValues>
        1.9137921929359436e-01 -1.2804880738258362e-01</leafValues></_>
    <_>
      <internalNodes>
        0 -1 127810 1.0988444089889526e-02</internalNodes>
      <leafValues>
        -9.0417802333831787e-02 2.6904669404029846e-01</leafValues></_></weakClassifiers></stage9>
</opencv_storage>
