<?xml version="1.0"?>
<opencv_storage>
<stage2>
  <maxWeakCount>34</maxWeakCount>
  <stageThreshold>-1.3489638566970825e+00</stageThreshold>
  <weakClassifiers>
    <_>
      <internalNodes>
        0 -1 99123 -6.1878673732280731e-02</internalNodes>
      <leafValues>
        -2.0000000298023224e-01 -7.8131484985351562e-01</leafValues></_>
    <_>
      <internalNodes>
        0 -1 504 4.1164807975292206e-02</internalNodes>
      <leafValues>
        -4.5844516158103943e-01 1.4878657460212708e-01</leafValues></_>
    <_>
      <internalNodes>
        0 -1 68865 -3.1780872493982315e-02</internalNodes>
      <leafValues>
        2.1850906312465668e-01 -3.9475917816162109e-01</leafValues></_>
    <_>
      <internalNodes>
        0 -1 67133 -5.3383340127766132e-04</internalNodes>
      <leafValues>
        -4.4486984610557556e-01 1.7766442894935608e-01</leafValues></_>
    <_>
      <internalNodes>
        0 -1 97035 -3.1515862792730331e-03</internalNodes>
      <leafValues>
        2.8741154074668884e-01 -2.8052377700805664e-01</leafValues></_>
    <_>
      <internalNodes>
        0 -1 4316 -4.3643854558467865e-02</internalNodes>
      <leafValues>
        4.6549588441848755e-01 -1.6752745211124420e-01</leafValues></_>
    <_>
      <internalNodes>
        0 -1 1548 1.2580764293670654e-01</internalNodes>
      <leafValues>
        -1.8646396696567535e-01 4.7126072645187378e-01</leafValues></_>
    <_>
      <internalNodes>
        0 -1 14396 -4.0056142024695873e-03</internalNodes>
      <leafValues>
        3.1444701552391052e-01 -1.9634538888931274e-01</leafValues></_>
    <_>
      <internalNodes>
        0 -1 93937 -5.4697744548320770e-02</internalNodes>
      <leafValues>
        1.0654639452695847e-01 -5.6972819566726685e-01</leafValues></_>
    <_>
      <internalNodes>
        0 -1 5481 -4.7922823578119278e-03</internalNodes>
      <leafValues>
        -6.7583048343658447e-01 7.2069026529788971e-02</leafValues></_>
    <_>
      <internalNodes>
        0 -1 103776 -4.3595336377620697e-02</internalNodes>
      <leafValues>
        -6.8381023406982422e-01 6.4467772841453552e-02</leafValues></_>
    <_>
      <internalNodes>
        0 -1 68009 -5.9841200709342957e-02</internalNodes>
      <leafValues>
        -7.5832736492156982e-01 5.7590141892433167e-02</leafValues></_>
    <_>
      <internalNodes>
        0 -1 130068 -9.6694931387901306e-02</internalNodes>
      <leafValues>
        3.6934494972229004e-01 -1.5167179703712463e-01</leafValues></_>
    <_>
      <internalNodes>
        0 -1 134513 5.2152819931507111e-02</internalNodes>
      <leafValues>
        -1.5622800588607788e-01 4.6343612670898438e-01</leafValues></_>
    <_>
      <internalNodes>
        0 -1 113299 -3.6917552351951599e-03</internalNodes>
      <leafValues>
        1.7991124093532562e-01 -3.1141844391822815e-01</leafValues></_>
    <_>
      <internalNodes>
        0 -1 161261 6.1116390861570835e-04</internalNodes>
      <leafValues>
        9.7057960927486420e-02 -5.5401933193206787e-01</leafValues></_>
    <_>
      <internalNodes>
        0 -1 55877 6.0580365359783173e-02</internalNodes>
      <leafValues>
        4.7031652182340622e-02 -8.3138865232467651e-01</leafValues></_>
    <_>
      <internalNodes>
        0 -1 143794 4.6997857280075550e-03</internalNodes>
      <leafValues>
        -1.7788116633892059e-01 2.8994464874267578e-01</leafValues></_>
    <_>
      <internalNodes>
        0 -1 161820 -1.3689519837498665e-03</internalNodes>
      <leafValues>
        -5.7252162694931030e-01 8.5651338100433350e-02</leafValues></_>
    <_>
      <internalNodes>
        0 -1 116998 2.0322832278907299e-03</internalNodes>
      <leafValues>
        5.6033663451671600e-02 -7.3068428039550781e-01</leafValues></_>
    <_>
      <internalNodes>
        0 -1 132197 7.9402863048017025e-04</internalNodes>
      <leafValues>
        -2.2059841454029083e-01 2.0199880003929138e-01</leafValues></_>
    <_>
      <internalNodes>
        0 -1 112430 -3.6670556291937828e-03</internalNodes>
      <leafValues>
        4.8557329177856445e-01 -9.7341962158679962e-02</leafValues></_>
    <_>
      <internalNodes>
        0 -1 106594 -2.8317514806985855e-03</internalNodes>
      <leafValues>
        2.5190880894660950e-01 -1.7522878944873810e-01</leafValues></_>
    <_>
      <internalNodes>
        0 -1 26058 1.5272377990186214e-02</internalNodes>
      <leafValues>
        -1.3539047539234161e-01 3.0143505334854126e-01</leafValues></_>
    <_>
      <internalNodes>
        0 -1 19898 6.2891794368624687e-03</internalNodes>
      <leafValues>
        6.1179481446743011e-02 -7.9408836364746094e-01</leafValues></_>
    <_>
      <internalNodes>
        0 -1 115524 -2.5559584610164165e-03</internalNodes>
      <leafValues>
        -6.8669086694717407e-01 5.3012579679489136e-02</leafValues></_>
    <_>
      <internalNodes>
        0 -1 21361 -6.1154797673225403e-02</internalNodes>
      <leafValues>
        -7.7420961856842041e-01 4.8327498137950897e-02</leafValues></_>
    <_>
      <internalNodes>
        0 -1 157960 1.1729434132575989e-02</internalNodes>
      <leafValues>
        -8.4224358201026917e-02 6.0042196512222290e-01</leafValues></_>
    <_>
      <internalNodes>
        0 -1 13393 -3.8840482011437416e-04</internalNodes>
      <leafValues>
        -3.4684842824935913e-01 1.2403532862663269e-01</leafValues></_>
    <_>
      <internalNodes>
        0 -1 133259 -3.3897068351507187e-02</internalNodes>
      <leafValues>
        -8.5611522197723389e-01 4.1555099189281464e-02</leafValues></_>
    <_>
      <internalNodes>
        0 -1 45046 -2.1623598411679268e-02</internalNodes>
      <leafValues>
        4.2530977725982666e-01 -1.0898511111736298e-01</leafValues></_>
    <_>
      <internalNodes>
        0 -1 133192 -5.0130195450037718e-04</internalNodes>
      <leafValues>
        1.8808092176914215e-01 -2.2692224383354187e-01</leafValues></_>
    <_>
      <internalNodes>
        0 -1 153685 3.4033201634883881e-02</internalNodes>
      <leafValues>
        -1.0497017949819565e-01 4.3780297040939331e-01</leafValues></_>
    <_>
      <internalNodes>
        0 -1 138355 -5.6581636890769005e-03</internalNodes>
      <leafValues>
        3.1286743283271790e-01 -1.4049240946769714e-01</leafValues></_></weakClassifiers></stage2>
</opencv_storage>
