<?xml version="1.0"?>
<opencv_storage>
<stage3>
  <maxWeakCount>41</maxWeakCount>
  <stageThreshold>-1.2814731597900391e+00</stageThreshold>
  <weakClassifiers>
    <_>
      <internalNodes>
        0 -1 49810 2.0381664857268333e-02</internalNodes>
      <leafValues>
        -7.7752202749252319e-01 -3.7562939524650574e-01</leafValues></_>
    <_>
      <internalNodes>
        0 -1 96285 2.9331424739211798e-03</internalNodes>
      <leafValues>
        -3.8670912384986877e-01 1.2790308892726898e-01</leafValues></_>
    <_>
      <internalNodes>
        0 -1 118085 -8.4270369261503220e-03</internalNodes>
      <leafValues>
        2.6545426249504089e-01 -2.5935226678848267e-01</leafValues></_>
    <_>
      <internalNodes>
        0 -1 14009 -9.9694030359387398e-04</internalNodes>
      <leafValues>
        2.3987290263175964e-01 -2.6294711232185364e-01</leafValues></_>
    <_>
      <internalNodes>
        0 -1 142826 -9.4196954742074013e-03</internalNodes>
      <leafValues>
        -7.4446570873260498e-01 1.2645648419857025e-01</leafValues></_>
    <_>
      <internalNodes>
        0 -1 130899 -1.0833108099177480e-03</internalNodes>
      <leafValues>
        2.7290502190589905e-01 -2.0318663120269775e-01</leafValues></_>
    <_>
      <internalNodes>
        0 -1 36675 -8.9897653087973595e-03</internalNodes>
      <leafValues>
        3.3645099401473999e-01 -1.2191630154848099e-01</leafValues></_>
    <_>
      <internalNodes>
        0 -1 7612 -5.5919043719768524e-02</internalNodes>
      <leafValues>
        4.0441411733627319e-01 -1.1837974935770035e-01</leafValues></_>
    <_>
      <internalNodes>
        0 -1 71325 4.4222272932529449e-02</internalNodes>
      <leafValues>
        -2.3013886809349060e-01 2.3199884593486786e-01</leafValues></_>
    <_>
      <internalNodes>
        0 -1 94583 -3.2963763922452927e-02</internalNodes>
      <leafValues>
        -7.2482246160507202e-01 7.6086491346359253e-02</leafValues></_>
    <_>
      <internalNodes>
        0 -1 59239 3.8679030258208513e-03</internalNodes>
      <leafValues>
        -1.4104390144348145e-01 3.5700798034667969e-01</leafValues></_>
    <_>
      <internalNodes>
        0 -1 88273 -4.5183196198195219e-04</internalNodes>
      <leafValues>
        1.4555358886718750e-01 -3.6703220009803772e-01</leafValues></_>
    <_>
      <internalNodes>
        0 -1 103583 1.0264615714550018e-01</internalNodes>
      <leafValues>
        5.3623624145984650e-02 -7.6538646221160889e-01</leafValues></_>
    <_>
      <internalNodes>
        0 -1 131862 1.7260753083974123e-03</internalNodes>
      <leafValues>
        -1.7405158281326294e-01 2.3825111985206604e-01</leafValues></_>
    <_>
      <internalNodes>
        0 -1 150039 -4.2392704635858536e-03</internalNodes>
      <leafValues>
        -7.0451825857162476e-01 5.4795570671558380e-02</leafValues></_>
    <_>
      <internalNodes>
        0 -1 46936 3.1249225139617920e-03</internalNodes>
      <leafValues>
        -1.8814101815223694e-01 2.2473183274269104e-01</leafValues></_>
    <_>
      <internalNodes>
        0 -1 104306 1.7694488633424044e-03</internalNodes>
      <leafValues>
        -1.7320898175239563e-01 2.3515871167182922e-01</leafValues></_>
    <_>
      <internalNodes>
        0 -1 144553 -1.5128646045923233e-02</internalNodes>
      <leafValues>
        2.9369917511940002e-01 -1.3903523981571198e-01</leafValues></_>
    <_>
      <internalNodes>
        0 -1 140265 1.0769298672676086e-01</internalNodes>
      <leafValues>
        -9.4285249710083008e-02 4.5351016521453857e-01</leafValues></_>
    <_>
      <internalNodes>
        0 -1 106535 -3.3619955182075500e-02</internalNodes>
      <leafValues>
        4.2244160175323486e-01 -1.3056603074073792e-01</leafValues></_>
    <_>
      <internalNodes>
        0 -1 138410 1.1769291944801807e-02</internalNodes>
      <leafValues>
        -2.2570538520812988e-01 2.1268190443515778e-01</leafValues></_>
    <_>
      <internalNodes>
        0 -1 151309 -5.6504299864172935e-03</internalNodes>
      <leafValues>
        3.9606335759162903e-01 -1.2416541576385498e-01</leafValues></_>
    <_>
      <internalNodes>
        0 -1 69570 -8.7618920952081680e-04</internalNodes>
      <leafValues>
        2.6155576109886169e-01 -1.6094419360160828e-01</leafValues></_>
    <_>
      <internalNodes>
        0 -1 125540 1.3098645955324173e-02</internalNodes>
      <leafValues>
        7.4438698589801788e-02 -6.0734790563583374e-01</leafValues></_>
    <_>
      <internalNodes>
        0 -1 132359 1.6583928372710943e-03</internalNodes>
      <leafValues>
        -1.2816704809665680e-01 3.3104363083839417e-01</leafValues></_>
    <_>
      <internalNodes>
        0 -1 73090 1.1379699571989477e-04</internalNodes>
      <leafValues>
        -2.4614587426185608e-01 1.6018773615360260e-01</leafValues></_>
    <_>
      <internalNodes>
        0 -1 558 -2.9954510927200317e-01</internalNodes>
      <leafValues>
        5.8518975973129272e-01 -8.0304667353630066e-02</leafValues></_>
    <_>
      <internalNodes>
        0 -1 119326 1.8394052749499679e-03</internalNodes>
      <leafValues>
        -1.2771017849445343e-01 3.0951797962188721e-01</leafValues></_>
    <_>
      <internalNodes>
        0 -1 134005 -1.4749851077795029e-02</internalNodes>
      <leafValues>
        4.0218272805213928e-01 -1.0060952603816986e-01</leafValues></_>
    <_>
      <internalNodes>
        0 -1 5433 4.5220371335744858e-02</internalNodes>
      <leafValues>
        -1.5288534760475159e-01 2.5606110692024231e-01</leafValues></_>
    <_>
      <internalNodes>
        0 -1 106885 2.7290754951536655e-03</internalNodes>
      <leafValues>
        8.6901672184467316e-02 -4.1459700465202332e-01</leafValues></_>
    <_>
      <internalNodes>
        0 -1 80141 4.6082129701972008e-03</internalNodes>
      <leafValues>
        -9.3443371355533600e-02 4.1526013612747192e-01</leafValues></_>
    <_>
      <internalNodes>
        0 -1 25433 1.2657098472118378e-02</internalNodes>
      <leafValues>
        5.7932976633310318e-02 -7.2643148899078369e-01</leafValues></_>
    <_>
      <internalNodes>
        0 -1 19306 1.1431332677602768e-02</internalNodes>
      <leafValues>
        3.5594314336776733e-02 -7.6127398014068604e-01</leafValues></_>
    <_>
      <internalNodes>
        0 -1 135833 8.7200403213500977e-03</internalNodes>
      <leafValues>
        4.3672081083059311e-02 -6.5132033824920654e-01</leafValues></_>
    <_>
      <internalNodes>
        0 -1 150098 1.1117915855720639e-03</internalNodes>
      <leafValues>
        -1.3979290425777435e-01 2.5450053811073303e-01</leafValues></_>
    <_>
      <internalNodes>
        0 -1 162283 -3.7969149649143219e-02</internalNodes>
      <leafValues>
        -9.6371847391128540e-01 3.6747198551893234e-02</leafValues></_>
    <_>
      <internalNodes>
        0 -1 13472 5.0332066166447476e-05</internalNodes>
      <leafValues>
        1.3506941497325897e-01 -2.4975596368312836e-01</leafValues></_>
    <_>
      <internalNodes>
        0 -1 120590 6.6529272589832544e-04</internalNodes>
      <leafValues>
        -1.0024617612361908e-01 3.3781534433364868e-01</leafValues></_>
    <_>
      <internalNodes>
        0 -1 127121 -1.2891625519841909e-03</internalNodes>
      <leafValues>
        1.6787944734096527e-01 -1.9928266108036041e-01</leafValues></_>
    <_>
      <internalNodes>
        0 -1 10466 -9.0923488140106201e-02</internalNodes>
      <leafValues>
        -6.1065125465393066e-01 5.8404389768838882e-02</leafValues></_></weakClassifiers></stage3>
</opencv_storage>
