<?xml version="1.0"?>
<opencv_storage>
<stage1>
  <maxWeakCount>10</maxWeakCount>
  <stageThreshold>-1.1430933475494385e+00</stageThreshold>
  <weakClassifiers>
    <_>
      <internalNodes>
        0 -1 106607 -2.7979195583611727e-03</internalNodes>
      <leafValues>
        1.1111111193895340e-01 -7.3544973134994507e-01</leafValues></_>
    <_>
      <internalNodes>
        0 -1 114743 -1.3881547376513481e-02</internalNodes>
      <leafValues>
        4.1726520657539368e-01 -5.0912213325500488e-01</leafValues></_>
    <_>
      <internalNodes>
        0 -1 96714 -7.7868048101663589e-03</internalNodes>
      <leafValues>
        3.5338404774665833e-01 -6.6587793827056885e-01</leafValues></_>
    <_>
      <internalNodes>
        0 -1 68484 3.5126195289194584e-03</internalNodes>
      <leafValues>
        -4.2189839482307434e-01 5.6423670053482056e-01</leafValues></_>
    <_>
      <internalNodes>
        0 -1 90554 -7.8792497515678406e-03</internalNodes>
      <leafValues>
        -8.3466041088104248e-01 3.1471237540245056e-01</leafValues></_>
    <_>
      <internalNodes>
        0 -1 429 3.9281114935874939e-02</internalNodes>
      <leafValues>
        -3.8068252801895142e-01 4.9743056297302246e-01</leafValues></_>
    <_>
      <internalNodes>
        0 -1 147967 2.9422910884022713e-03</internalNodes>
      <leafValues>
        -3.1447318196296692e-01 5.3187537193298340e-01</leafValues></_>
    <_>
      <internalNodes>
        0 -1 28782 -1.7283476889133453e-02</internalNodes>
      <leafValues>
        6.2569218873977661e-01 -1.8918581306934357e-01</leafValues></_>
    <_>
      <internalNodes>
        0 -1 4510 6.9250129163265228e-02</internalNodes>
      <leafValues>
        -2.4774520099163055e-01 5.4232656955718994e-01</leafValues></_>
    <_>
      <internalNodes>
        0 -1 68050 1.4793983427807689e-03</internalNodes>
      <leafValues>
        -4.1795933246612549e-01 4.2892658710479736e-01</leafValues></_></weakClassifiers></stage1>
</opencv_storage>
