<?xml version="1.0"?>
<opencv_storage>
<stage6>
  <maxWeakCount>41</maxWeakCount>
  <stageThreshold>-9.5919167995452881e-01</stageThreshold>
  <weakClassifiers>
    <_>
      <internalNodes>
        0 -1 99123 -5.9812344610691071e-02</internalNodes>
      <leafValues>
        -2.0149253308773041e-01 -6.5037596225738525e-01</leafValues></_>
    <_>
      <internalNodes>
        0 -1 3321 -4.4204179197549820e-02</internalNodes>
      <leafValues>
        3.1434872746467590e-01 -2.0144259929656982e-01</leafValues></_>
    <_>
      <internalNodes>
        0 -1 78817 -4.6150959096848965e-03</internalNodes>
      <leafValues>
        2.6296931505203247e-01 -2.0768667757511139e-01</leafValues></_>
    <_>
      <internalNodes>
        0 -1 99375 9.5998514443635941e-03</internalNodes>
      <leafValues>
        6.6288180649280548e-02 -6.6839593648910522e-01</leafValues></_>
    <_>
      <internalNodes>
        0 -1 118689 -6.7822802811861038e-03</internalNodes>
      <leafValues>
        4.4154885411262512e-01 -1.0311911255121231e-01</leafValues></_>
    <_>
      <internalNodes>
        0 -1 85554 -6.7878030240535736e-03</internalNodes>
      <leafValues>
        2.5707030296325684e-01 -1.7876973748207092e-01</leafValues></_>
    <_>
      <internalNodes>
        0 -1 89004 2.4736784398555756e-02</internalNodes>
      <leafValues>
        6.9542117416858673e-02 -6.1383223533630371e-01</leafValues></_>
    <_>
      <internalNodes>
        0 -1 119901 -1.4817401766777039e-02</internalNodes>
      <leafValues>
        7.1379043161869049e-02 -6.7102563381195068e-01</leafValues></_>
    <_>
      <internalNodes>
        0 -1 134051 1.9331213831901550e-01</internalNodes>
      <leafValues>
        -5.7020846754312515e-02 7.6409733295440674e-01</leafValues></_>
    <_>
      <internalNodes>
        0 -1 139325 -3.6017633974552155e-03</internalNodes>
      <leafValues>
        3.2990142703056335e-01 -1.3853389024734497e-01</leafValues></_>
    <_>
      <internalNodes>
        0 -1 93110 -3.4744315780699253e-04</internalNodes>
      <leafValues>
        -4.9219229817390442e-01 8.5403747856616974e-02</leafValues></_>
    <_>
      <internalNodes>
        0 -1 68566 1.7023868858814240e-03</internalNodes>
      <leafValues>
        -1.2675921618938446e-01 3.4452056884765625e-01</leafValues></_>
    <_>
      <internalNodes>
        0 -1 111629 -1.1457681655883789e-02</internalNodes>
      <leafValues>
        3.7498652935028076e-01 -1.1306691914796829e-01</leafValues></_>
    <_>
      <internalNodes>
        0 -1 125803 9.1137440176680684e-04</internalNodes>
      <leafValues>
        -1.6805566847324371e-01 2.5186467170715332e-01</leafValues></_>
    <_>
      <internalNodes>
        0 -1 143730 -8.1879366189241409e-03</internalNodes>
      <leafValues>
        -6.1957973241806030e-01 7.2355270385742188e-02</leafValues></_>
    <_>
      <internalNodes>
        0 -1 47882 -1.2214746326208115e-02</internalNodes>
      <leafValues>
        4.5309951901435852e-01 -1.0564368963241577e-01</leafValues></_>
    <_>
      <internalNodes>
        0 -1 105912 -7.3954416438937187e-03</internalNodes>
      <leafValues>
        -8.9212667942047119e-01 6.7479282617568970e-02</leafValues></_>
    <_>
      <internalNodes>
        0 -1 82570 2.3600308224558830e-02</internalNodes>
      <leafValues>
        3.9154224097728729e-02 -6.5962874889373779e-01</leafValues></_>
    <_>
      <internalNodes>
        0 -1 99957 2.7992477407678962e-04</internalNodes>
      <leafValues>
        -1.9729436933994293e-01 2.0786218345165253e-01</leafValues></_>
    <_>
      <internalNodes>
        0 -1 1114 1.4308492245618254e-04</internalNodes>
      <leafValues>
        1.4070408046245575e-01 -3.0138850212097168e-01</leafValues></_>
    <_>
      <internalNodes>
        0 -1 89854 7.0970915257930756e-03</internalNodes>
      <leafValues>
        4.3779704719781876e-02 -8.0447471141815186e-01</leafValues></_>
    <_>
      <internalNodes>
        0 -1 18800 1.9728770712390542e-04</internalNodes>
      <leafValues>
        1.2037261575460434e-01 -3.0921071767807007e-01</leafValues></_>
    <_>
      <internalNodes>
        0 -1 139139 -1.7177711706608534e-03</internalNodes>
      <leafValues>
        2.3463395237922668e-01 -1.7183440923690796e-01</leafValues></_>
    <_>
      <internalNodes>
        0 -1 58854 4.4614123180508614e-03</internalNodes>
      <leafValues>
        6.6125117242336273e-02 -5.9764289855957031e-01</leafValues></_>
    <_>
      <internalNodes>
        0 -1 4657 -6.9111739285290241e-03</internalNodes>
      <leafValues>
        -7.0979362726211548e-01 4.5719277113676071e-02</leafValues></_>
    <_>
      <internalNodes>
        0 -1 125427 2.7772786561399698e-03</internalNodes>
      <leafValues>
        -9.6595443785190582e-02 4.1404911875724792e-01</leafValues></_>
    <_>
      <internalNodes>
        0 -1 87604 -8.9159241179004312e-04</internalNodes>
      <leafValues>
        2.3206229507923126e-01 -1.7357534170150757e-01</leafValues></_>
    <_>
      <internalNodes>
        0 -1 79045 -7.6137711293995380e-03</internalNodes>
      <leafValues>
        3.4313946962356567e-01 -1.2265066802501678e-01</leafValues></_>
    <_>
      <internalNodes>
        0 -1 60525 1.7401468940079212e-03</internalNodes>
      <leafValues>
        -1.5923611819744110e-01 2.4850064516067505e-01</leafValues></_>
    <_>
      <internalNodes>
        0 -1 116119 1.0519200935959816e-02</internalNodes>
      <leafValues>
        -1.4556874334812164e-01 3.1450164318084717e-01</leafValues></_>
    <_>
      <internalNodes>
        0 -1 110962 -1.1662410572171211e-02</internalNodes>
      <leafValues>
        3.1896468997001648e-01 -1.6207636892795563e-01</leafValues></_>
    <_>
      <internalNodes>
        0 -1 1811 1.1739114299416542e-02</internalNodes>
      <leafValues>
        6.5973766148090363e-02 -6.8738877773284912e-01</leafValues></_>
    <_>
      <internalNodes>
        0 -1 53215 6.4826346933841705e-03</internalNodes>
      <leafValues>
        7.2663538157939911e-02 -5.6479847431182861e-01</leafValues></_>
    <_>
      <internalNodes>
        0 -1 71201 -1.4150405302643776e-02</internalNodes>
      <leafValues>
        4.2989784479141235e-01 -1.0833150893449783e-01</leafValues></_>
    <_>
      <internalNodes>
        0 -1 151434 -3.6387795116752386e-03</internalNodes>
      <leafValues>
        -5.9470844268798828e-01 7.4178963899612427e-02</leafValues></_>
    <_>
      <internalNodes>
        0 -1 115515 2.3550284095108509e-04</internalNodes>
      <leafValues>
        -2.3493584990501404e-01 1.8042652308940887e-01</leafValues></_>
    <_>
      <internalNodes>
        0 -1 1863 -1.0682420805096626e-02</internalNodes>
      <leafValues>
        -6.4374953508377075e-01 5.9868387877941132e-02</leafValues></_>
    <_>
      <internalNodes>
        0 -1 139786 -7.7306543244048953e-04</internalNodes>
      <leafValues>
        2.2089140117168427e-01 -1.6866610944271088e-01</leafValues></_>
    <_>
      <internalNodes>
        0 -1 79705 -1.1779980268329382e-03</internalNodes>
      <leafValues>
        2.0720160007476807e-01 -1.8822452425956726e-01</leafValues></_>
    <_>
      <internalNodes>
        0 -1 132762 -6.5040779300034046e-03</internalNodes>
      <leafValues>
        -5.4079473018646240e-01 7.8136920928955078e-02</leafValues></_>
    <_>
      <internalNodes>
        0 -1 46422 5.0743728876113892e-02</internalNodes>
      <leafValues>
        6.5301753580570221e-02 -6.0691332817077637e-01</leafValues></_></weakClassifiers></stage6>
</opencv_storage>
